svm_type c_svc
kernel_type rbf
gamma 0.03125
nr_class 2
total_sv 326
rho 296.404
label 1 -1
probA -1.17276
probB -0.162047
nr_sv 170 156
SV
673.4552325792898 1:-0.524169 2:-0.999663 3:-0.999943 4:0.179445 5:-0.00606009 6:-0.996441 7:0.483531 8:-0.9999 9:-0.997623 10:0.388623 11:-0.511892 12:-0.998473 13:-0.616089 14:-0.998265 15:-0.893914 16:-0.943335 17:-0.884613 18:-0.953976 19:-0.889153 20:-0.942995 21:-0.89442 22:-0.945073 23:-0.894395 24:-0.91772 25:-0.887409 26:-0.916568 27:-0.885438 28:-0.955701 29:-0.890999 30:-0.93872 31:-0.888188 32:-0.910172 33:-0.985721 34:-0.961933 35:-0.973497 36:-0.200376 37:-0.191035 38:-0.747323 39:-0.575521 40:-0.0931034 41:-0.629139 42:-0.727434 43:-0.44373 44:-0.0523691 45:0.0775194 46:-0.787611 47:-0.761468 48:-0.863118 49:-0.899371 50:-0.946768 51:-0.925094 52:-0.948529 53:-0.68 54:-1 55:-1 56:-1 57:-0.980769 58:-1 59:-0.993103 60:0.0645551 61:-0.237771 
406.0644548276757 1:-0.705789 2:-0.998328 3:-0.999672 4:0.181755 5:-0.00590805 6:-0.991083 7:0.484217 8:-0.999689 9:-0.998193 10:0.388315 11:-0.510843 12:-0.997871 13:-0.61603 14:-0.998107 15:-0.939854 16:-0.941085 17:-0.943408 18:-0.946163 19:-0.945062 20:-0.937253 21:-0.941472 22:-0.93056 23:-0.913151 24:-0.931991 25:-0.865092 26:-0.901469 27:-0.862837 28:-0.892895 29:-0.86322 30:-0.892429 31:-0.864471 32:-0.916987 33:-0.895311 34:-0.955758 35:-0.986941 36:-0.968015 37:-0.959445 38:-0.925054 39:-0.833333 40:-0.665517 41:-0.427815 42:-0.580531 43:-0.321543 44:-0.321696 45:-0.620155 46:-0.628319 47:-0.437309 48:-0.657795 49:-0.672956 50:-0.726236 51:-0.745318 52:-0.897059 53:-0.893333 54:-0.923445 55:-0.941176 56:-0.970803 57:-1 58:-0.970588 59:-1 60:-0.388574 61:-0.290255 
1577.784426257427 1:-0.846628 2:-0.995999 3:-0.997137 4:0.174015 5:-0.00719858 6:-0.989434 7:0.485599 8:-0.998744 9:-0.998895 10:0.388428 11:-0.512478 12:-0.998236 13:-0.616091 14:-0.998672 15:-0.973895 16:-0.984022 17:-0.97874 18:-0.987547 19:-0.934357 20:-0.954048 21:-0.93369 22:-0.952588 23:-0.900009 24:-0.939463 25:-0.859546 26:-0.926303 27:-0.855397 28:-0.932609 29:-0.866077 30:-0.942183 31:-0.891468 32:-0.938531 33:-0.902237 34:-0.94595 35:-0.991166 36:-0.990593 37:-0.963714 38:-0.957173 39:-0.867188 40:-0.851724 41:-0.854305 42:-0.899115 43:-0.765273 44:-0.715711 45:-0.0155039 46:-0.687316 47:-0.669725 48:-0.794677 49:-0.855346 50:-0.855513 51:-0.827715 52:-0.904412 53:-0.9 54:-0.923445 55:-0.882353 56:-0.970803 57:-1 58:-1 59:-1 60:-0.25613 61:-0.169158 
32768 1:-0.972548 2:-0.963629 3:-0.964055 4:0.160373 5:-0.00706126 6:-0.991047 7:0.483951 8:-0.999443 9:-0.999794 10:0.388562 11:-0.510927 12:-0.999538 13:-0.615508 14:-0.999661 15:-0.973982 16:-0.969165 17:-0.974138 18:-0.974112 19:-1 20:-1 21:-0.951577 22:-0.959752 23:-0.948215 24:-0.920986 25:-1 26:-1 27:-0.933289 28:-0.897202 29:-1 30:-1 31:-0.921455 32:-0.911178 33:-0.952746 34:-0.915112 35:-0.998848 36:-0.994356 37:-0.995731 38:-0.989293 39:-0.979167 40:-0.972414 41:-0.952318 42:-0.982301 43:-0.967846 44:-0.890274 45:-0.922481 46:-0.964602 47:-0.944954 48:-0.954373 49:-0.968553 50:-0.961977 51:-0.992509 52:-0.977941 53:-0.973333 54:-1 55:-1 56:-0.985401 57:-0.980769 58:-1 59:-0.986207 60:-0.447309 61:-0.438045 
32768 1:-0.998608 2:-0.493776 3:-0.506187 4:0.100223 5:-0.0136768 6:-0.989267 7:0.484544 8:-0.999457 9:-0.999986 10:0.388479 11:-0.511249 12:-0.999963 13:-0.616089 14:-0.999973 15:-0.94522 16:-0.957599 17:-1 18:-1 19:-1 20:-1 21:-1 22:-1 23:-1 24:-1 25:-1 26:-1 27:-1 28:-1 29:-1 30:-1 31:-1 32:-1 33:-0.945793 34:-0.915689 35:-0.999616 36:-1 37:-1 38:-1 39:-1 40:-1 41:-1 42:-1 43:-0.993569 44:-1 45:-0.992248 46:-1 47:-0.981651 48:-1 49:-1 50:-0.992395 51:-1 52:-1 53:-1 54:-0.990431 55:-0.988235 56:-0.985401 57:-1 58:-1 59:-1 60:-0.676202 61:-0.143571 
29049.79976205423 1:-0.997812 2:-0.598997 3:-0.607769 4:0.0965996 5:-0.0198447 6:-0.985201 7:0.486028 8:-0.998886 9:-0.999974 10:0.388479 11:-0.511274 12:-0.999964 13:-0.616089 14:-0.99997 15:-0.94876 16:-0.953862 17:-1 18:-1 19:-1 20:-1 21:-1 22:-1 23:-1 24:-1 25:-1 26:-1 27:-1 28:-1 29:-1 30:-1 31:-1 32:-1 33:-0.950227 34:-0.893047 35:-0.999616 36:-1 37:-1 38:-1 39:-1 40:-1 41:-1 42:-1 43:-0.996785 44:-1 45:-0.992248 46:-0.9941 47:-0.993884 48:-0.992395 49:-1 50:-1 51:-0.992509 52:-0.992647 53:-0.986667 54:-1 55:-0.988235 56:-1 57:-0.980769 58:-0.970588 59:-0.986207 60:-0.593096 61:-0.259672 
69.72258462486235 1:-0.858365 2:-0.99183 3:-0.991823 4:0.172218 5:-0.007236 6:-0.993729 7:0.484467 8:-0.999433 9:-0.999091 10:0.388389 11:-0.510838 12:-0.997299 13:-0.616063 14:-0.997997 15:-0.935551 16:-0.951974 17:-0.916067 18:-0.95478 19:-0.912412 20:-0.933042 21:-0.944327 22:-0.900702 23:-0.95447 24:-0.88766 25:-0.945833 26:-0.893875 27:-0.937937 28:-0.886865 29:-0.935461 30:-0.905208 31:-0.964857 32:-0.911227 33:-0.961941 34:-0.938344 35:-0.97465 36:-0.988711 37:-0.957311 38:-0.942184 39:-0.856771 40:-0.865517 41:-0.968212 42:-0.978761 43:-0.935691 44:-0.930175 45:-0.790698 46:-0.852507 47:-0.859327 48:-0.771863 49:-0.773585 50:-0.619772 51:-0.146067 52:-0.742647 53:-0.773333 54:-0.84689 55:-0.682353 56:-0.89781 57:-0.846154 58:-0.823529 59:-0.951724 60:0.0516118 61:-0.0689606 
5757.763847506494 1:-0.970559 2:-0.988793 3:-0.996399 4:0.192626 5:-0.00270354 6:-0.962981 7:0.493757 8:-0.995195 9:-0.999845 10:0.388479 11:-0.511263 12:-0.999859 13:-0.616084 14:-0.999853 15:-1 16:-1 17:-0.986818 18:-0.894202 19:-0.99784 20:-0.994676 21:-0.966733 22:-0.925331 23:-0.983343 24:-0.91056 25:-0.977849 26:-0.916197 27:-0.980541 28:-0.940865 29:-0.979193 30:-0.964569 31:-0.968688 32:-0.910614 33:-0.976185 34:-0.933488 35:-0.99155 36:-0.994356 37:-0.985059 38:-0.991435 39:-0.973958 40:-0.97931 41:-0.962914 42:-0.99292 43:-0.987138 44:-0.995012 45:-0.992248 46:-0.970501 47:-0.969419 48:-0.91635 49:-0.930818 50:-0.91635 51:-0.955056 52:-0.919118 53:-0.966667 54:-0.952153 55:-0.964706 56:-0.985401 57:-1 58:-0.970588 59:-0.993103 60:-0.196813 61:-0.387263 
32768 1:-0.995624 2:-0.881889 3:-0.902719 4:0.281102 5:-0.0115171 6:-0.912513 7:0.478495 8:-0.999042 9:-0.999973 10:0.388485 11:-0.511315 12:-0.999794 13:-0.616246 14:-0.999861 15:-0.948517 16:-0.929169 17:-1 18:-1 19:-0.992467 20:-0.996633 21:-1 22:-1 23:-1 24:-1 25:-0.941361 26:-0.992395 27:-1 28:-1 29:-0.952297 30:-0.942638 31:-1 32:-1 33:-0.923694 34:-0.97274 35:-0.998848 36:-0.992474 37:-0.997866 38:-0.991435 39:-0.997396 40:-1 41:-0.992053 42:-1 43:-0.993569 44:-0.995012 45:-0.992248 46:-0.9941 47:-0.993884 48:-1 49:-1 50:-0.992395 51:-1 52:-1 53:-1 54:-0.990431 55:-0.988235 56:-1 57:-1 58:-0.970588 59:-1 60:0.105201 61:-0.326295 
32650.78454505921 1:-0.996021 2:-0.87921 3:-0.903298 4:0.28676 5:0.000814954 6:-0.902007 7:0.490099 8:-0.998994 9:-0.999983 10:0.388479 11:-0.511274 12:-0.999875 13:-0.616094 14:-0.999914 15:-0.988699 16:-0.975068 17:-1 18:-1 19:-0.923822 20:-0.958323 21:-1 22:-1 23:-0.992171 24:-0.984708 25:-1 26:-1 27:-1 28:-1 29:-0.923904 30:-0.9741 31:-1 32:-1 33:-0.997819 34:-0.992547 35:-0.999232 36:-0.996237 37:-0.993597 38:-0.995717 39:-0.989583 40:-1 41:-1 42:-1 43:-0.996785 44:-1 45:-0.992248 46:-1 47:-0.993884 48:-0.984791 49:-1 50:-0.984791 51:-1 52:-1 53:-0.993333 54:-1 55:-0.976471 56:-1 57:-0.980769 58:-1 59:-1 60:0.147228 61:-0.290732 
32768 1:-0.990452 2:-0.871761 3:-0.90408 4:0.302067 5:-0.00199117 6:-0.870942 7:0.487986 8:-0.999594 9:-0.99997 10:0.388481 11:-0.511192 12:-0.999801 13:-0.616087 14:-0.999862 15:-0.954178 16:-0.976829 17:-1 18:-1 19:-1 20:-1 21:-0.934662 22:-0.974828 23:-1 24:-1 25:-1 26:-1 27:-0.929589 28:-0.969373 29:-1 30:-1 31:-1 32:-1 33:-0.92167 34:-0.957401 35:-0.995391 36:-0.998119 37:-0.978655 38:-0.997859 39:-0.994792 40:-0.993103 41:-0.994702 42:-1 43:-0.996785 44:-0.990025 45:-0.968992 46:-1 47:-1 48:-0.984791 49:-0.993711 50:-0.984791 51:-0.985019 52:-0.992647 53:-0.986667 54:-1 55:-0.988235 56:-1 57:-0.961538 58:-0.941176 59:-1 60:0.126075 61:-0.231195 
32768 1:-0.998806 2:-0.280131 3:-0.306154 4:0.395071 5:-0.0237604 6:-0.944637 7:0.478679 8:-0.998975 9:-0.999986 10:0.388481 11:-0.511271 12:-0.999955 13:-0.616089 14:-0.999967 15:-0.948041 16:-0.963037 17:-1 18:-1 19:-1 20:-1 21:-1 22:-1 23:-1 24:-1 25:-1 26:-1 27:-1 28:-1 29:-1 30:-1 31:-1 32:-1 33:-0.938388 34:-0.914634 35:-0.999616 36:-1 37:-1 38:-0.997859 39:-1 40:-0.996552 41:-1 42:-1 43:-1 44:-0.995012 45:-1 46:-1 47:-1 48:-0.977186 49:-1 50:-1 51:-0.992509 52:-1 53:-1 54:-1 55:-0.988235 56:-1 57:-0.980769 58:-1 59:-1 60:-0.500849 61:-0.425392 
32768 1:-0.998608 2:-0.298736 3:-0.325879 4:0.392524 5:-0.0272144 6:-0.944336 7:0.477647 8:-0.998714 9:-0.999983 10:0.38848 11:-0.511276 12:-0.999954 13:-0.616089 14:-0.999965 15:-0.966692 16:-0.955806 17:-1 18:-1 19:-1 20:-1 21:-1 22:-1 23:-1 24:-1 25:-1 26:-1 27:-1 28:-1 29:-1 30:-1 31:-1 32:-1 33:-0.941201 34:-0.901467 35:-0.999616 36:-1 37:-1 38:-1 39:-1 40:-1 41:-1 42:-0.99823 43:-0.996785 44:-0.995012 45:-1 46:-0.9941 47:-1 48:-1 49:-1 50:-0.984791 51:-0.992509 52:-0.985294 53:-1 54:-1 55:-1 56:-1 57:-0.980769 58:-1 59:-1 60:-0.540122 61:-0.457193 
32768 1:-0.998806 2:-0.316824 3:-0.342919 4:0.388747 5:-0.0228452 6:-0.944921 7:0.478813 8:-0.998899 9:-0.999985 10:0.388478 11:-0.511244 12:-0.999956 13:-0.61609 14:-0.999968 15:-0.940872 16:-0.952204 17:-1 18:-1 19:-1 20:-1 21:-1 22:-1 23:-1 24:-1 25:-1 26:-1 27:-1 28:-1 29:-1 30:-1 31:-1 32:-1 33:-0.943523 34:-0.917257 35:-0.999616 36:-1 37:-0.997866 38:-1 39:-1 40:-1 41:-1 42:-1 43:-0.993569 44:-1 45:-0.992248 46:-1 47:-1 48:-0.984791 49:-0.993711 50:-1 51:-0.992509 52:-1 53:-1 54:-1 55:-1 56:-1 57:-1 58:-0.970588 59:-1 60:-0.586 61:-0.434166 
22859.52403594545 1:-0.998608 2:-0.336823 3:-0.363481 4:0.380643 5:-0.0160302 6:-0.947476 7:0.480724 8:-0.999677 9:-0.999988 10:0.38848 11:-0.511258 12:-0.999954 13:-0.616088 14:-0.999965 15:-0.980035 16:-0.947942 17:-1 18:-1 19:-1 20:-1 21:-1 22:-1 23:-1 24:-1 25:-1 26:-1 27:-1 28:-1 29:-1 30:-1 31:-1 32:-1 33:-0.936613 34:-0.920765 35:-0.999616 36:-1 37:-1 38:-1 39:-0.997396 40:-1 41:-0.997351 42:-0.99646 43:-1 44:-1 45:-1 46:-1 47:-1 48:-1 49:-0.987421 50:-1 51:-1 52:-1 53:-1 54:-1 55:-1 56:-1 57:-1 58:-0.911765 59:-0.993103 60:-0.482516 61:-0.431059 
3657.141229989916 1:-0.998409 2:-0.371499 3:-0.396676 4:0.379556 5:-0.0191289 6:-0.945172 7:0.479694 8:-0.999281 9:-0.999983 10:0.388479 11:-0.511255 12:-0.999952 13:-0.616089 14:-0.999964 15:-0.966193 16:-0.95148 17:-1 18:-1 19:-1 20:-1 21:-1 22:-1 23:-1 24:-1 25:-1 26:-1 27:-1 28:-1 29:-1 30:-1 31:-1 32:-1 33:-0.940189 34:-0.905442 35:-0.999616 36:-1 37:-1 38:-1 39:-0.997396 40:-0.996552 41:-1 42:-0.99823 43:-1 44:-1 45:-0.976744 46:-1 47:-1 48:-1 49:-1 50:-1 51:-0.992509 52:-0.985294 53:-1 54:-1 55:-0.988235 56:-1 57:-1 58:-1 59:-0.993103 60:-0.537513 61:-0.450699 
5704.270485265939 1:-0.998409 2:-0.408796 3:-0.431032 4:0.376495 5:-0.0183858 6:-0.943624 7:0.479752 8:-0.999067 9:-0.999979 10:0.388478 11:-0.51125 12:-0.999953 13:-0.616089 14:-0.999966 15:-0.925176 16:-0.941278 17:-1 18:-1 19:-1 20:-1 21:-1 22:-1 23:-1 24:-1 25:-1 26:-1 27:-1 28:-1 29:-1 30:-1 31:-1 32:-1 33:-0.936607 34:-0.90763 35:-0.999616 36:-1 37:-1 38:-1 39:-1 40:-1 41:-0.994702 42:-1 43:-1 44:-1 45:-1 46:-0.988201 47:-1 48:-1 49:-1 50:-0.984791 51:-1 52:-1 53:-0.993333 54:-1 55:-1 56:-0.970803 57:-0.980769 58:-0.970588 59:-1 60:-0.515589 61:-0.4674 
9746.92151647884 1:-0.984484 2:-0.911754 3:-0.910818 4:0.19773 5:-0.0107385 6:-0.996987 7:0.482654 8:-0.999284 9:-0.999887 10:0.388464 11:-0.511066 12:-0.999635 13:-0.616088 14:-0.999733 15:-0.950018 16:-0.96651 17:-1 18:-1 19:-0.96475 20:-0.942322 21:-1 22:-1 23:-0.957706 24:-0.93074 25:-1 26:-1 27:-0.928452 28:-0.895347 29:-0.948806 30:-0.950694 31:-0.983137 32:-0.907718 33:-0.968206 34:-0.958239 35:-0.999232 36:-0.996237 37:-0.993597 38:-0.989293 39:-1 40:-0.986207 41:-0.994702 42:-0.99469 43:-0.990354 44:-0.955112 45:-0.953488 46:-0.976401 47:-0.969419 48:-0.939163 49:-0.987421 50:-0.954373 51:-0.962547 52:-0.963235 53:-0.993333 54:-0.971292 55:-0.988235 56:-0.970803 57:-0.980769 58:-1 59:-1 60:-0.311061 61:-0.226556 
1857.079821847229 1:-0.980903 2:-0.931713 3:-0.93098 4:0.195499 5:-0.00841035 6:-0.997021 7:0.483006 8:-0.999349 9:-0.999846 10:0.38702 11:-0.510842 12:-0.999594 13:-0.616091 14:-0.999706 15:-0.904072 16:-0.953392 17:-1 18:-1 19:-0.945149 20:-0.936697 21:-1 22:-1 23:-0.958077 24:-0.931979 25:-1 26:-1 27:-0.918585 28:-0.895709 29:-0.941502 30:-0.934668 31:-0.991351 32:-0.900834 33:-0.968149 34:-0.954321 35:-0.999616 36:-0.990593 37:-0.993597 38:-0.985011 39:-0.992188 40:-0.993103 41:-0.984106 42:-0.99469 43:-0.990354 44:-0.9601 45:-0.937984 46:-0.976401 47:-0.944954 48:-0.954373 49:-0.955975 50:-0.923954 51:-0.985019 52:-0.977941 53:-0.966667 54:-1 55:-0.964706 56:-1 57:-1 58:-0.941176 59:-1 60:-0.27579 61:-0.244012 
14863.58790194941 1:-0.965785 2:-0.97822 3:-0.985804 4:0.152628 5:-0.0101125 6:-0.955848 7:0.49034 8:-0.997787 9:-0.999559 10:0.385786 11:-0.509348 12:-0.999499 13:-0.616085 14:-0.999547 15:-0.977145 16:-0.97559 17:-0.97704 18:-0.950987 19:-0.978468 20:-0.860942 21:-0.90851 22:-0.906964 23:-0.938206 24:-0.907738 25:-0.907595 26:-0.877958 27:-1 28:-1 29:-0.918977 30:-0.951206 31:-0.95149 32:-0.962056 33:-0.963204 34:-0.970176 35:-0.998848 36:-0.994356 37:-0.993597 38:-0.991435 39:-0.997396 40:-0.982759 41:-0.994702 42:-0.968142 43:-0.951768 44:-0.935162 45:-0.837209 46:-0.952802 47:-0.877676 48:-0.939163 49:-0.930818 50:-0.961977 51:-0.925094 52:-0.948529 53:-0.966667 54:-1 55:-0.976471 56:-0.941606 57:-0.942308 58:-0.970588 59:-0.972414 60:-0.378637 61:-0.291796 
32768 1:-0.983489 2:-0.978415 3:-0.985089 4:0.155214 5:-0.0114037 6:-0.965899 7:0.491218 8:-0.996417 9:-0.999883 10:0.388482 11:-0.511228 12:-0.999922 13:-0.616089 14:-0.99994 15:-1 16:-1 17:-1 18:-1 19:-0.869855 20:-0.983118 21:-1 22:-1 23:-0.899638 24:-0.958362 25:-1 26:-1 27:-0.919113 28:-0.949727 29:-1 30:-1 31:-0.92928 32:-0.921301 33:-0.997531 34:-0.997867 35:-0.996543 36:-0.994356 37:-0.997866 38:-0.991435 39:-0.997396 40:-0.993103 41:-0.992053 42:-0.99292 43:-0.977492 44:-0.98005 45:-0.968992 46:-0.970501 47:-0.95107 48:-0.939163 49:-0.987421 50:-0.969582 51:-0.955056 52:-0.977941 53:-0.98 54:-0.961722 55:-0.988235 56:-1 57:-0.980769 58:-1 59:-1 60:-0.301613 61:-0.370838 
32768 1:-0.993038 2:-0.978586 3:-0.978629 4:0.161863 5:0.0096367 6:-0.98723 7:0.471847 8:-0.982256 9:-0.999971 10:0.388482 11:-0.511236 12:-0.99993 13:-0.616089 14:-0.999945 15:-0.917303 16:-0.953576 17:-1 18:-1 19:-0.900144 20:-0.95164 21:-1 22:-1 23:-0.99632 24:-0.996473 25:-0.993307 26:-0.987706 27:-1 28:-1 29:-0.995213 30:-0.993882 31:-1 32:-1 33:-0.968042 34:-0.969833 35:-0.994239 36:-0.990593 37:-0.991462 38:-0.995717 39:-1 40:-0.993103 41:-1 42:-1 43:-0.996785 44:-0.995012 45:-1 46:-0.9941 47:-1 48:-0.992395 49:-0.987421 50:-1 51:-1 52:-0.992647 53:-1 54:-1 55:-0.976471 56:-1 57:-1 58:-0.970588 59:-0.993103 60:-0.239295 61:-0.670094 
32768 1:-0.985081 2:-0.977899 3:-0.976706 4:0.18109 5:0.00875039 6:-0.999968 7:0.484093 8:-0.985452 9:-0.999966 10:0.388485 11:-0.511364 12:-0.999808 13:-0.616087 14:-0.999866 15:-0.973597 16:-0.955367 17:-0.954923 18:-0.952301 19:-1 20:-1 21:-0.9581 22:-0.959067 23:-1 24:-1 25:-0.979362 26:-0.980406 27:-1 28:-1 29:-0.998118 30:-0.994636 31:-1 32:-1 33:-0.970072 34:-0.977216 35:-0.99808 36:-0.994356 37:-0.976521 38:-0.985011 39:-0.963542 40:-0.986207 41:-0.986755 42:-1 43:-0.993569 44:-1 45:-0.992248 46:-1 47:-0.969419 48:-0.992395 49:-0.987421 50:-1 51:-0.970037 52:-0.977941 53:-0.966667 54:-0.942584 55:-0.988235 56:-1 57:-1 58:-1 59:-1 60:-0.259542 61:-0.51841 
32768 1:-0.986274 2:-0.975879 3:-0.974402 4:0.181522 5:0.0079494 6:-0.999928 7:0.484212 8:-0.987986 9:-0.999954 10:0.388477 11:-0.511275 12:-0.999844 13:-0.616091 14:-0.999892 15:-0.939393 16:-0.987341 17:-0.964448 18:-0.955971 19:-1 20:-1 21:-0.957619 22:-0.960447 23:-1 24:-1 25:-0.954537 26:-0.964932 27:-1 28:-1 29:-0.98321 30:-0.978137 31:-1 32:-1 33:-0.976153 34:-0.978052 35:-0.997695 36:-0.981185 37:-0.985059 38:-0.985011 39:-0.979167 40:-0.989655 41:-0.992053 42:-0.989381 43:-0.990354 44:-0.990025 45:-1 46:-0.976401 47:-0.987768 48:-0.984791 49:-0.987421 50:-0.977186 51:-0.977528 52:-1 53:-0.986667 54:-1 55:-1 56:-1 57:-1 58:-1 59:-1 60:-0.32186 61:-0.530544 
32768 1:-0.990452 2:-0.957724 3:-0.957938 4:0.188571 5:-0.0210715 6:-0.998543 7:0.480788 8:-0.991672 9:-0.999972 10:0.388481 11:-0.511204 12:-0.999929 13:-0.616093 14:-0.999947 15:-0.983957 16:-0.963754 17:-1 18:-1 19:-0.966811 20:-0.951251 21:-1 22:-1 23:-0.965582 24:-0.950218 25:-0.991398 26:-0.980983 27:-1 28:-1 29:-0.99206 30:-0.972458 31:-1 32:-1 33:-0.986946 34:-0.997014 35:-0.998848 36:-1 37:-0.993597 38:-0.997859 39:-0.992188 40:-0.996552 41:-0.997351 42:-0.99823 43:-0.987138 44:-0.995012 45:-0.984496 46:-0.9941 47:-0.987768 48:-0.954373 49:-0.981132 50:-0.977186 51:-0.985019 52:-0.963235 53:-0.98 54:-0.952153 55:-1 56:-0.985401 57:-0.980769 58:-1 59:-1 60:-0.270415 61:-0.267609 
7369.679583861954 1:-0.950467 2:-0.955623 3:-0.950171 4:0.185371 5:-0.00260019 6:-0.998889 7:0.483798 8:-0.998341 9:-0.998266 10:0.385894 11:-0.507153 12:-0.998414 13:-0.616246 14:-0.99849 15:-0.794345 16:-0.847189 17:-0.802523 18:-0.838312 19:-0.836582 20:-0.837625 21:-0.844823 22:-0.853314 23:-1 24:-1 25:-0.810493 26:-0.859258 27:-0.795659 28:-0.836027 29:-0.809588 30:-0.830594 31:-0.878678 32:-0.866796 33:-0.875529 34:-0.86213 35:-0.994239 36:-0.928504 37:-0.963714 38:-0.972163 39:-0.960938 40:-0.986207 41:-0.976159 42:-0.985841 43:-0.958199 44:-0.955112 45:-0.906977 46:-0.858407 47:-0.902141 48:-0.931559 49:-0.918239 50:-0.893536 51:-0.977528 52:-0.948529 53:-0.973333 54:-0.980861 55:-0.988235 56:-0.985401 57:-0.942308 58:-0.941176 59:-0.993103 60:-0.110895 61:-0.344832 
3730.357495098853 1:-0.948677 2:-0.952071 3:-0.946847 4:0.187315 5:-0.00284304 6:-0.998575 7:0.483858 8:-0.998764 9:-0.998379 10:0.388479 11:-0.510897 12:-0.998361 13:-0.615986 14:-0.998449 15:-0.843179 16:-0.859426 17:-0.862858 18:-0.856584 19:-0.86873 20:-0.850134 21:-0.834217 22:-0.845424 23:-1 24:-1 25:-0.793457 26:-0.855107 27:-0.800797 28:-0.838271 29:-0.78431 30:-0.832709 31:-0.875327 32:-0.875883 33:-0.878352 34:-0.901627 35:-0.99347 36:-0.947319 37:-0.953042 38:-0.970021 39:-0.981771 40:-0.958621 41:-0.984106 42:-0.99115 43:-0.961415 44:-0.9601 45:-0.891473 46:-0.958702 47:-0.938838 48:-0.863118 49:-0.91195 50:-0.847909 51:-0.895131 52:-0.911765 53:-0.966667 54:-0.990431 55:-0.929412 56:-0.970803 57:-0.961538 58:-0.911765 59:-0.97931 60:-0.0950973 61:-0.322213 
32768 1:-0.994032 2:-0.891928 3:-0.891793 4:0.218627 5:0.00813825 6:-0.988467 7:0.487899 8:-0.996878 9:-0.999958 10:0.388478 11:-0.511271 12:-0.999849 13:-0.616087 14:-0.99989 15:-0.994704 16:-0.995311 17:-1 18:-1 19:-0.903363 20:-0.950035 21:-1 22:-1 23:-1 24:-1 25:-0.992839 26:-0.989413 27:-1 28:-1 29:-0.90914 30:-0.945338 31:-1 32:-1 33:-0.983192 34:-0.972289 35:-0.997311 36:-0.996237 37:-0.995731 38:-0.997859 39:-0.992188 40:-0.989655 41:-0.997351 42:-0.99646 43:-0.996785 44:-0.98005 45:-0.984496 46:-1 47:-1 48:-0.984791 49:-0.993711 50:-0.984791 51:-1 52:-1 53:-1 54:-0.990431 55:-1 56:-1 57:-1 58:-1 59:-1 60:-0.180717 61:-0.500273 
628.9465763001151 1:-0.514621 2:-1 3:-0.999927 4:0.180458 5:-0.00599962 6:-0.99761 7:0.483734 8:-0.999709 9:-0.998027 10:0.388525 11:-0.511815 12:-0.99837 13:-0.616092 14:-0.998568 15:-0.927784 16:-0.972821 17:-0.922922 18:-0.969623 19:-0.942534 20:-0.970693 21:-0.916896 22:-0.940565 23:-0.890307 24:-0.934689 25:-0.851416 26:-0.935132 27:-0.851037 28:-0.940682 29:-0.854995 30:-0.950985 31:-0.848998 32:-0.948685 33:-0.853173 34:-0.965487 35:-0.990398 36:-0.11571 37:1 38:-0.0792291 39:-0.497396 40:-0.8 41:-0.904636 42:-0.884956 43:-0.848875 44:-0.800499 45:-0.658915 46:-0.79941 47:-0.82263 48:-0.893536 49:-0.955975 50:-0.977186 51:-0.985019 52:-0.970588 53:-0.98 54:-1 55:-1 56:-0.985401 57:-0.980769 58:-1 59:-0.993103 60:-0.586639 61:-0.71968 
2.593954370270705 1:-0.487965 2:-0.999747 3:-0.999553 4:0.18123 5:-0.00610084 6:-0.996622 7:0.483334 8:-0.999458 9:-0.995869 10:0.388245 11:-0.510645 12:-0.995028 13:-0.616058 14:-0.996001 15:-0.983302 16:-0.958032 17:-0.928703 18:-0.884201 19:-0.89949 20:-0.876801 21:-0.896715 22:-0.877252 23:-0.901968 24:-0.862461 25:-0.892133 26:-0.864408 27:-0.865192 28:-0.863261 29:-0.872566 30:-0.855959 31:-0.882725 32:-0.854706 33:-0.889206 34:-0.872871 35:-0.982716 36:-0.636877 37:0.483458 38:-0.0149893 39:-0.216146 40:-0.544828 41:-0.724503 42:-0.916814 43:-0.884244 44:-0.750623 45:-0.604651 46:-0.734513 47:-0.688073 48:-0.764259 49:-0.528302 50:-0.673004 51:-0.797753 52:-0.941176 53:-0.826667 54:-0.837321 55:-0.752941 56:-0.416058 57:-0.0192308 58:-0.470588 59:-0.924138 60:-0.0313744 61:-0.459526 
676.2661373720487 1:-0.721902 2:-0.998977 3:-0.998619 4:0.181677 5:-0.00567943 6:-0.998199 7:0.483873 8:-0.999511 9:-0.998527 10:0.382969 11:-0.48068 12:-0.998473 13:-0.616024 14:-0.998734 15:-0.906603 16:-0.974188 17:-0.943972 18:-0.972486 19:-0.956721 20:-0.964139 21:-0.959055 22:-0.95161 23:-0.922354 24:-0.932348 25:-0.904841 26:-0.93717 27:-0.875517 28:-0.938333 29:-0.886793 30:-0.929561 31:-0.893788 32:-0.927914 33:-0.906681 34:-0.930234 35:-0.994623 36:-0.979304 37:-0.929562 38:-0.847966 39:-0.429688 40:-0.637931 41:-0.462252 42:-0.695575 43:-0.5209 44:-0.266833 45:-0.565891 46:-0.710914 47:-0.896024 48:-0.908745 49:-0.955975 50:-0.878327 51:-0.902622 52:-0.948529 53:-0.8 54:-0.789474 55:-0.811765 56:-0.839416 57:-0.653846 58:-0.941176 59:-0.986207 60:-0.468334 61:-0.493981 
1086.83182399597 1:-0.751343 2:-0.995855 3:-0.995499 4:0.17614 5:-0.005124 6:-0.997031 7:0.482771 8:-0.999423 9:-0.996705 10:0.388479 11:-0.511198 12:-0.997278 13:-0.616071 14:-0.997173 15:-0.910359 16:-0.941687 17:-0.913175 18:-0.942842 19:-0.928632 20:-0.938242 21:-0.932289 22:-0.884447 23:-0.930841 24:-0.880595 25:-0.928224 26:-0.87958 27:-0.922211 28:-0.840168 29:-0.901681 30:-0.839894 31:-0.950691 32:-0.838934 33:-0.954395 34:-0.906327 35:-0.817937 36:-0.983067 37:-0.967983 38:-0.972163 39:-0.947917 40:-0.941379 41:-0.928477 42:-0.925664 43:-0.77492 44:-0.870324 45:-0.775194 46:-0.828909 47:-0.675841 48:-0.338403 49:-0.358491 50:-0.346008 51:-0.64794 52:-0.720588 53:-0.76 54:-0.837321 55:-0.917647 56:-0.956204 57:-0.884615 58:-0.970588 59:-1 60:0.176199 61:-0.316107 
32768 1:-0.99622 2:-0.945179 3:-0.948065 4:0.143696 5:0.0151817 6:-0.978989 7:0.470516 8:-0.986616 9:-0.999991 10:0.388478 11:-0.511246 12:-0.999952 13:-0.616092 14:-0.999967 15:-0.949819 16:-0.960303 17:-1 18:-1 19:-1 20:-1 21:-0.962653 22:-0.964753 23:-1 24:-1 25:-1 26:-1 27:-0.9887 28:-0.97701 29:-1 30:-1 31:-1 32:-1 33:-0.994716 34:-0.97938 35:-0.999616 36:-0.998119 37:-1 38:-0.997859 39:-0.992188 40:-0.986207 41:-0.997351 42:-0.99823 43:-1 44:-1 45:-0.984496 46:-1 47:-1 48:-1 49:-0.987421 50:-1 51:-0.985019 52:-0.992647 53:-1 54:-0.990431 55:-1 56:-0.970803 57:-1 58:-0.970588 59:-1 60:-0.562316 61:-0.632098 
32768 1:-0.995226 2:-0.941121 3:-0.944767 4:0.142542 5:0.0175951 6:-0.978961 7:0.469474 8:-0.98439 9:-0.999988 10:0.388479 11:-0.511256 12:-0.999941 13:-0.616089 14:-0.999958 15:-0.974374 16:-0.951567 17:-1 18:-1 19:-1 20:-1 21:-0.96298 22:-0.96419 23:-1 24:-1 25:-1 26:-1 27:-0.992856 28:-0.968986 29:-1 30:-1 31:-1 32:-1 33:-0.98832 34:-0.971457 35:-0.998848 36:-0.998119 37:-1 38:-0.982869 39:-1 40:-0.993103 41:-1 42:-0.99646 43:-0.990354 44:-1 45:-1 46:-1 47:-1 48:-0.992395 49:-0.987421 50:-1 51:-1 52:-0.992647 53:-0.993333 54:-0.990431 55:-0.988235 56:-0.985401 57:-0.980769 58:-1 59:-1 60:-0.523753 61:-0.664748 
32768 1:-0.995823 2:-0.939303 3:-0.942023 4:0.141668 5:0.0174682 6:-0.979011 7:0.469895 8:-0.985241 9:-0.999989 10:0.388479 11:-0.511265 12:-0.999939 13:-0.616065 14:-0.999958 15:-0.949258 16:-0.959826 17:-1 18:-1 19:-1 20:-1 21:-0.959263 22:-0.963587 23:-1 24:-1 25:-1 26:-1 27:-0.989004 28:-0.976023 29:-1 30:-1 31:-1 32:-1 33:-0.990451 34:-0.972924 35:-0.997311 36:-0.994356 37:-1 38:-0.995717 39:-0.997396 40:-0.996552 41:-1 42:-0.99646 43:-0.996785 44:-0.995012 45:-1 46:-0.988201 47:-1 48:-0.992395 49:-1 50:-0.984791 51:-1 52:-0.992647 53:-1 54:-1 55:-0.988235 56:-1 57:-1 58:-1 59:-1 60:-0.501677 61:-0.701225 
32768 1:-0.997812 2:-0.934617 3:-0.938101 4:0.139428 5:0.0173404 6:-0.977987 7:0.470086 8:-0.986458 9:-0.999997 10:0.388481 11:-0.51127 12:-0.999962 13:-0.616089 14:-0.999974 15:-0.980113 16:-0.985871 17:-1 18:-1 19:-1 20:-1 21:-0.968463 22:-0.985244 23:-1 24:-1 25:-1 26:-1 27:-0.997976 28:-0.995261 29:-1 30:-1 31:-1 32:-1 33:-0.967774 34:-0.989839 35:-0.99808 36:-0.998119 37:-0.995731 38:-1 39:-1 40:-1 41:-0.997351 42:-0.99823 43:-1 44:-0.995012 45:-1 46:-1 47:-1 48:-0.992395 49:-1 50:-1 51:-1 52:-1 53:-0.993333 54:-1 55:-0.976471 56:-1 57:-1 58:-1 59:-1 60:-0.386254 61:-0.663761 
32768 1:-0.993634 2:-0.924544 3:-0.929747 4:0.224016 5:0.0136108 6:-0.977088 7:0.494231 8:-0.991452 9:-0.999979 10:0.388481 11:-0.511271 12:-0.99994 13:-0.616089 14:-0.999955 15:-1 16:-1 17:-1 18:-1 19:-1 20:-1 21:-0.940804 22:-0.960757 23:-1 24:-1 25:-1 26:-1 27:-0.937376 28:-0.945215 29:-1 30:-1 31:-1 32:-1 33:-0.970457 34:-0.955634 35:-0.998848 36:-0.992474 37:-0.991462 38:-0.991435 39:-0.989583 40:-0.993103 41:-0.997351 42:-0.99823 43:-0.993569 44:-0.995012 45:-1 46:-0.988201 47:-0.993884 48:-1 49:-1 50:-1 51:-1 52:-0.977941 53:-1 54:-1 55:-0.988235 56:-0.970803 57:-1 58:-0.970588 59:-1 60:-0.0547987 61:-0.476428 
3355.474692673245 1:-0.98886 2:-0.808096 3:-0.824337 4:0.311973 5:-0.000568453 6:-0.917403 7:0.487073 8:-0.999641 9:-0.999883 10:0.38847 11:-0.51137 12:-0.999455 13:-0.616091 14:-0.999597 15:-0.955282 16:-0.870986 17:-1 18:-1 19:-0.934068 20:-0.869983 21:-1 22:-1 23:-1 24:-1 25:-0.986208 26:-0.943534 27:-1 28:-1 29:-0.971396 30:-0.904615 31:-1 32:-1 33:-0.988967 34:-0.955932 35:-0.995391 36:-0.981185 37:-0.993597 38:-0.995717 39:-1 40:-0.996552 41:-0.986755 42:-0.99115 43:-0.990354 44:-0.995012 45:-0.945736 46:-0.982301 47:-0.981651 48:-0.992395 49:-1 50:-1 51:-0.992509 52:-0.992647 53:-1 54:-0.990431 55:-0.988235 56:-1 57:-1 58:-1 59:-1 60:0.1731 61:-0.316992 
8901.9732484262 1:-0.980505 2:-0.993632 3:-0.993704 4:0.185244 5:-0.00975998 6:-0.996249 7:0.480679 8:-0.996518 9:-0.99997 10:0.388454 11:-0.511261 12:-0.999549 13:-0.616109 14:-0.999692 15:-0.972293 16:-0.968109 17:-0.990858 18:-0.975549 19:-0.960829 20:-0.982232 21:-0.988584 22:-0.986365 23:-0.96555 24:-0.956328 25:-0.968055 26:-0.970122 27:-1 28:-1 29:-1 30:-1 31:-1 32:-1 33:-0.991248 34:-0.985434 35:-0.988093 36:-0.996237 37:-0.995731 38:-0.993576 39:-0.994792 40:-0.996552 41:-0.994702 42:-0.99292 43:-0.996785 44:-0.990025 45:-0.976744 46:-0.982301 47:-1 48:-0.992395 49:-1 50:-0.961977 51:-0.955056 52:-0.977941 53:-1 54:-0.952153 55:-0.917647 56:-0.868613 57:-0.923077 58:-0.823529 59:-1 60:0.149676 61:-0.305535 
32768 1:-0.992242 2:-0.905063 3:-0.904999 4:0.173519 5:-0.0361613 6:-0.999529 7:0.485254 8:-0.985347 9:-0.999938 10:0.388325 11:-0.5109 12:-0.999932 13:-0.616086 14:-0.999934 15:-0.908307 16:-0.910254 17:-1 18:-1 19:-1 20:-1 21:-1 22:-1 23:-1 24:-1 25:-0.926169 26:-0.938219 27:-1 28:-1 29:-1 30:-1 31:-1 32:-1 33:-0.919944 34:-0.954123 35:-0.999232 36:-0.994356 37:-0.974386 38:-0.96788 39:-0.989583 40:-0.989655 41:-0.997351 42:-0.99823 43:-1 44:-1 45:-1 46:-0.9941 47:-1 48:-1 49:-1 50:-1 51:-1 52:-1 53:-1 54:-1 55:-0.988235 56:-1 57:-1 58:-1 59:-1 60:-0.785797 61:-0.906243 
32768 1:-0.989059 2:-0.960993 3:-0.961359 4:0.162623 5:-0.000805573 6:-0.993534 7:0.481414 8:-0.99883 9:-0.999966 10:0.388481 11:-0.511272 12:-0.999932 13:-0.61609 14:-0.999946 15:-0.978833 16:-0.937984 17:-1 18:-1 19:-1 20:-1 21:-0.975989 22:-0.957401 23:-1 24:-1 25:-1 26:-1 27:-0.944806 28:-0.943394 29:-1 30:-1 31:-1 32:-1 33:-0.99407 34:-0.97302 35:-0.999616 36:-0.998119 37:-1 38:-1 39:-1 40:-0.996552 41:-1 42:-1 43:-0.996785 44:-0.985037 45:-0.945736 46:-0.964602 47:-0.908257 48:-0.977186 49:-0.974843 50:-0.946768 51:-0.992509 52:-0.985294 53:-0.98 54:-1 55:-0.988235 56:-0.970803 57:-0.980769 58:-1 59:-1 60:-0.35554 61:0.0112301 
24934.49973424062 1:-0.969962 2:-0.98798 3:-0.99256 4:0.194354 5:-0.0018922 6:-0.976845 7:0.490496 8:-0.996213 9:-0.999821 10:0.388489 11:-0.51101 12:-0.999829 13:-0.61608 14:-0.999842 15:-1 16:-1 17:-1 18:-1 19:-1 20:-1 21:-0.921601 22:-0.992499 23:-0.868249 24:-0.985153 25:-0.871465 26:-0.977998 27:-0.929917 28:-0.982491 29:-0.938065 30:-0.982082 31:-0.82226 32:-0.927187 33:-0.882484 34:-0.984905 35:-0.989245 36:-0.992474 37:-0.989328 38:-0.985011 39:-0.986979 40:-0.965517 41:-0.986755 42:-0.99292 43:-1 44:-0.970075 45:-0.976744 46:-0.935103 47:-0.95107 48:-0.923954 49:-0.924528 50:-0.91635 51:-0.925094 52:-0.926471 53:-0.973333 54:-0.980861 55:-1 56:-1 57:-1 58:-1 59:-1 60:-0.0987933 61:-0.326053 
32768 1:-0.980903 2:-0.995187 3:-0.99631 4:0.185859 5:-0.00316802 6:-0.992193 7:0.487508 8:-0.996493 9:-0.99998 10:0.388468 11:-0.511236 12:-0.999878 13:-0.616088 14:-0.999915 15:-0.967705 16:-0.989417 17:-0.970542 18:-0.978185 19:-0.979991 20:-0.993158 21:-0.980536 22:-0.983247 23:-0.95559 24:-0.986662 25:-0.938125 26:-0.989606 27:-0.945102 28:-0.993145 29:-0.965985 30:-0.993683 31:-0.975026 32:-0.99422 33:-0.984377 34:-0.996136 35:-0.995007 36:-0.990593 37:-0.987193 38:-0.991435 39:-0.994792 40:-0.982759 41:-0.984106 42:-0.99292 43:-0.983923 44:-0.950125 45:-0.953488 46:-0.964602 47:-0.975535 48:-1 49:-0.987421 50:-0.977186 51:-0.992509 52:-0.992647 53:-0.993333 54:-0.942584 55:-0.976471 56:-0.985401 57:-0.923077 58:-0.941176 59:-0.993103 60:-0.388119 61:-0.571009 
865.4518617552228 1:-0.674756 2:-0.996086 3:-0.996242 4:0.17517 5:-0.005164 6:-0.994475 7:0.482454 8:-0.999479 9:-0.994761 10:0.392702 11:-0.509884 12:-0.995332 13:-0.616585 14:-0.995124 15:-0.961759 16:-0.941244 17:-0.963184 18:-0.936684 19:-0.950989 20:-0.928658 21:-0.920458 22:-0.841714 23:-0.919818 24:-0.838504 25:-0.899725 26:-0.834249 27:-0.93343 28:-0.81523 29:-0.927582 30:-0.816644 31:-0.944723 32:-0.822258 33:-0.937926 34:-0.827354 35:-0.985788 36:-0.975541 37:-0.974386 38:-0.858672 39:-0.763021 40:-0.775862 41:-0.899338 42:-0.906195 43:-0.829582 44:-0.645885 45:-0.0775194 46:-0.0560472 47:0.46789 48:1 49:0.0125786 50:-0.460076 51:-0.520599 52:-0.757353 53:-0.933333 54:-0.904306 55:-0.952941 56:-0.941606 57:-0.980769 58:-1 59:-1 60:-0.177574 61:0.0807311 
32768 1:-0.99821 2:-0.780606 3:-0.788851 4:0.109984 5:0.010998 6:-0.980737 7:0.478532 8:-0.997776 9:-0.999992 10:0.38848 11:-0.511267 12:-0.9999 13:-0.616097 14:-0.999932 15:-0.99383 16:-0.991537 17:-1 18:-1 19:-1 20:-1 21:-0.996819 22:-0.978117 23:-1 24:-1 25:-1 26:-1 27:-1 28:-1 29:-1 30:-1 31:-1 32:-1 33:-0.954681 34:-0.947738 35:-0.999232 36:-1 37:-0.997866 38:-1 39:-1 40:-1 41:-1 42:-1 43:-1 44:-1 45:-1 46:-0.982301 47:-0.993884 48:-1 49:-1 50:-1 51:-0.992509 52:-1 53:-1 54:-0.990431 55:-0.988235 56:-0.985401 57:-1 58:-0.970588 59:-0.993103 60:-0.490192 61:-0.233178 
24893.6406512375 1:-0.997414 2:-0.795327 3:-0.801415 4:0.119286 5:-0.00824244 6:-0.984531 7:0.484054 8:-0.999886 9:-0.999979 10:0.388481 11:-0.511239 12:-0.999914 13:-0.616071 14:-0.999936 15:-0.987857 16:-0.983664 17:-1 18:-1 19:-1 20:-1 21:-0.944108 22:-0.943884 23:-1 24:-1 25:-1 26:-1 27:-0.960294 28:-0.936576 29:-1 30:-1 31:-1 32:-1 33:-0.995477 34:-0.969852 35:-0.996159 36:-1 37:-1 38:-0.997859 39:-1 40:-0.996552 41:-1 42:-1 43:-1 44:-0.995012 45:-1 46:-1 47:-0.993884 48:-1 49:-1 50:-0.992395 51:-1 52:-1 53:-1 54:-0.990431 55:-1 56:-0.985401 57:-1 58:-1 59:-1 60:-0.199094 61:-0.710503 
32768 1:-0.998011 2:-0.791657 3:-0.795108 4:0.124703 5:0.0155607 6:-0.987636 7:0.47838 8:-0.99644 9:-0.999993 10:0.388479 11:-0.511259 12:-0.999945 13:-0.616088 14:-0.999961 15:-0.960592 16:-0.965634 17:-1 18:-1 19:-1 20:-1 21:-1 22:-1 23:-0.985936 24:-0.984683 25:-0.970313 26:-0.96218 27:-1 28:-1 29:-1 30:-1 31:-1 32:-1 33:-0.983356 34:-0.969711 35:-0.996927 36:-0.998119 37:-0.997866 38:-1 39:-1 40:-1 41:-1 42:-1 43:-1 44:-1 45:-0.984496 46:-1 47:-1 48:-1 49:-1 50:-1 51:-1 52:-1 53:-1 54:-1 55:-0.988235 56:-1 57:-0.980769 58:-1 59:-1 60:-0.354537 61:-0.779661 
32768 1:-0.996021 2:-0.76048 3:-0.770924 4:0.0762359 5:-0.0484419 6:-0.960626 7:0.500228 8:-0.986947 9:-0.999882 10:0.388476 11:-0.511257 12:-0.999894 13:-0.616088 14:-0.999901 15:-0.882996 16:-0.827385 17:-1 18:-1 19:-1 20:-1 21:-1 22:-1 23:-1 24:-1 25:-0.98689 26:-0.966941 27:-1 28:-1 29:-1 30:-1 31:-1 32:-1 33:-0.835712 34:-0.99237 35:-0.995007 36:-0.990593 37:-0.997866 38:-0.997859 39:-0.997396 40:-1 41:-1 42:-1 43:-1 44:-1 45:-1 46:-1 47:-0.993884 48:-1 49:-1 50:-1 51:-1 52:-1 53:-1 54:-0.990431 55:-1 56:-1 57:-1 58:-0.970588 59:-1 60:-0.216458 61:-0.785772 
788.1144385833418 1:-0.721902 2:-0.998206 3:-0.999183 4:0.182596 5:-0.00607347 6:-0.992646 7:0.483405 8:-0.999854 9:-0.998265 10:0.388433 11:-0.510899 12:-0.997994 13:-0.616191 14:-0.998154 15:-0.947202 16:-0.941358 17:-0.932536 18:-0.906909 19:-0.918322 20:-0.882699 21:-0.922338 22:-0.900846 23:-0.920625 24:-0.904083 25:-0.9292 26:-0.90343 27:-0.936686 28:-0.941804 29:-0.940317 30:-0.925389 31:-0.92829 32:-0.898768 33:-0.899826 34:-0.909358 35:-0.981563 36:-0.951082 37:-0.859125 38:-0.586724 39:-0.208333 40:-0.796552 41:-0.901987 42:-0.938053 43:-0.855305 44:-0.835411 45:-0.829457 46:-0.781711 47:-0.651376 48:-0.627376 49:-0.685535 50:-0.460076 51:-0.52809 52:-0.625 53:-0.773333 54:-0.837321 55:-0.788235 56:-0.532847 57:-0.442308 58:-0.352941 59:-0.972414 60:0.0191898 61:-0.260301 
32768 1:-0.999204 2:-0.561546 3:-0.565368 4:0.189006 5:0.0164764 6:-0.999807 7:0.483879 8:-0.998052 9:-0.999992 10:0.388479 11:-0.511247 12:-0.999919 13:-0.61609 14:-0.999944 15:-0.943539 16:-0.956606 17:-1 18:-1 19:-1 20:-1 21:-1 22:-1 23:-1 24:-1 25:-1 26:-1 27:-1 28:-1 29:-1 30:-1 31:-1 32:-1 33:-0.958815 34:-0.978115 35:-0.999616 36:-1 37:-0.995731 38:-1 39:-1 40:-0.989655 41:-1 42:-1 43:-1 44:-1 45:-1 46:-1 47:-1 48:-1 49:-1 50:-1 51:-1 52:-1 53:-1 54:-1 55:-1 56:-1 57:-0.961538 58:-1 59:-1 60:-0.812522 61:-0.879376 
38.47140131433882 1:-0.00437637 2:-0.999751 3:-0.999564 4:0.181219 5:-0.00604237 6:-0.996494 7:0.483495 8:-0.999626 9:-0.992192 10:0.388407 11:-0.517265 12:-0.989768 13:-0.616182 14:-0.991446 15:-0.895723 16:-0.963161 17:-0.881706 18:-0.861135 19:-0.876794 20:-0.859004 21:-0.88732 22:-0.836579 23:-0.873966 24:-0.852738 25:-0.902809 26:-0.846606 27:-0.88878 28:-0.830589 29:-0.889315 30:-0.805834 31:-0.888585 32:-0.82182 33:-0.918592 34:-0.926311 35:-0.916267 36:1 37:-0.0501601 38:-0.895075 39:-0.815104 40:-0.362069 41:-0.536424 42:-0.759292 43:-0.5209 44:0.0224439 45:0.75969 46:0.716814 47:1 48:0.931559 49:0.63522 50:0.315589 51:0.7603 52:0.382353 53:-0.253333 54:-0.186603 55:-0.352941 56:-0.343066 57:-0.576923 58:-0.588235 59:-0.827586 60:0.23698 61:-0.141875 
243.1201436169544 1:-0.296996 2:-0.997967 3:-0.997462 4:0.176927 5:-0.00638708 6:-0.996669 7:0.483827 8:-0.999422 9:-0.989402 10:0.388511 11:-0.51234 12:-0.993204 13:-0.616218 14:-0.992616 15:-0.89606 16:-0.878641 17:-0.889876 18:-0.857317 19:-0.887888 20:-0.857472 21:-0.910963 22:-0.864228 23:-0.896448 24:-0.850349 25:-0.888594 26:-0.849577 27:-0.901072 28:-0.835395 29:-0.906981 30:-0.825002 31:-0.892427 32:-0.813237 33:-0.929168 34:-0.824506 35:-0.921644 36:-0.298213 37:-0.423693 38:-0.937901 39:-0.950521 40:-0.924138 41:-0.925828 42:-0.934513 43:-0.829582 44:-0.571072 45:-0.139535 46:-0.386431 47:-0.278287 48:0.117871 49:0.327044 50:0.452471 51:1 52:1 53:1 54:1 55:1 56:1 57:0.653846 58:0.558824 59:-0.717241 60:0.434537 61:0.22968 
212.7255342098328 1:-0.569525 2:-0.999268 3:-0.999107 4:0.181396 5:-0.00579729 6:-0.998002 7:0.48383 8:-0.999646 9:-0.997168 10:0.388491 11:-0.506454 12:-0.997471 13:-0.616099 14:-0.997597 15:-0.974152 16:-0.973928 17:-0.938813 18:-0.908411 19:-0.940308 20:-0.894173 21:-0.944027 22:-0.904992 23:-0.902712 24:-0.880117 25:-0.90917 26:-0.858928 27:-0.902417 28:-0.85859 29:-0.912881 30:-0.865192 31:-0.920828 32:-0.868145 33:-0.968575 34:-0.956224 35:-0.949683 36:-0.840075 37:-0.748132 38:-0.783726 39:-0.658854 40:-0.451724 41:-0.509934 42:-0.614159 43:-0.318328 44:-0.187032 45:0.139535 46:-0.156342 47:0.155963 48:-0.285171 49:-0.654088 50:-0.893536 51:-0.895131 52:-0.992647 53:-0.993333 54:-0.952153 55:-1 56:-1 57:-1 58:-0.970588 59:-0.993103 60:0.0178338 61:-0.0137439 
32768 1:-0.997215 2:-0.927685 3:-0.927022 4:0.186067 5:-0.011388 6:-0.999514 7:0.48308 8:-0.999046 9:-0.999976 10:0.388479 11:-0.511254 12:-0.999974 13:-0.616089 14:-0.999978 15:-0.991618 16:-0.990921 17:-1 18:-1 19:-1 20:-1 21:-0.944366 22:-0.949484 23:-1 24:-1 25:-1 26:-1 27:-1 28:-1 29:-1 30:-1 31:-1 32:-1 33:-0.99141 34:-0.995523 35:-0.998848 36:-1 37:-1 38:-0.997859 39:-0.997396 40:-1 41:-1 42:-0.99823 43:-1 44:-1 45:-0.992248 46:-1 47:-0.993884 48:-1 49:-1 50:-1 51:-0.992509 52:-0.992647 53:-0.993333 54:-1 55:-1 56:-1 57:-0.980769 58:-0.882353 59:-0.986207 60:-0.255171 61:-0.381644 
32768 1:-0.994032 2:-0.917966 3:-0.918208 4:0.193912 5:-0.0262196 6:-0.998038 7:0.480468 8:-0.992255 9:-0.999983 10:0.388479 11:-0.511252 12:-0.999938 13:-0.616089 14:-0.999956 15:-0.986278 16:-0.975417 17:-1 18:-1 19:-1 20:-1 21:-0.949484 22:-0.968505 23:-1 24:-1 25:-1 26:-1 27:-0.961435 28:-0.948456 29:-1 30:-1 31:-1 32:-1 33:-0.993818 34:-0.995251 35:-0.999232 36:-0.998119 37:-0.997866 38:-0.987152 39:-0.994792 40:-0.965517 41:-0.992053 42:-0.99823 43:-0.993569 44:-0.990025 45:-1 46:-1 47:-1 48:-0.984791 49:-1 50:-1 51:-0.992509 52:-1 53:-1 54:-1 55:-0.988235 56:-1 57:-1 58:-1 59:-1 60:-0.360078 61:-0.578162 
32768 1:-0.998806 2:-0.82983 3:-0.83712 4:0.255025 5:0.0375919 6:-0.971294 7:0.501038 8:-0.982053 9:-0.999995 10:0.388479 11:-0.511267 12:-0.999946 13:-0.616087 14:-0.999963 15:-0.959826 16:-0.986363 17:-1 18:-1 19:-1 20:-1 21:-1 22:-1 23:-1 24:-1 25:-1 26:-1 27:-0.957953 28:-0.97242 29:-1 30:-1 31:-1 32:-1 33:-0.99278 34:-0.978049 35:-0.998464 36:-0.996237 37:-1 38:-0.997859 39:-1 40:-1 41:-1 42:-1 43:-1 44:-1 45:-1 46:-1 47:-1 48:-1 49:-0.993711 50:-0.992395 51:-1 52:-1 53:-1 54:-1 55:-1 56:-1 57:-0.980769 58:-1 59:-1 60:-0.332924 61:-0.725856 
190.9192048390923 1:-0.739407 2:-0.997578 3:-0.997559 4:0.176998 5:-0.00569805 6:-0.996883 7:0.483089 8:-0.999689 9:-0.998348 10:0.373727 11:-0.468732 12:-0.99793 13:-0.615954 14:-0.998202 15:-0.962324 16:-0.954267 17:-0.959414 18:-0.944298 19:-0.913047 20:-0.902233 21:-0.916867 22:-0.914998 23:-0.911729 24:-0.915144 25:-0.909604 26:-0.91446 27:-0.946468 28:-0.920737 29:-0.898649 30:-0.930166 31:-0.941957 32:-0.892071 33:-0.961035 34:-0.893703 35:-0.9831 36:-0.941675 37:-0.771612 38:-0.464668 39:-0.671875 40:-0.875862 41:-0.941722 42:-0.938053 43:-0.951768 44:-0.890274 45:-0.651163 46:-0.79351 47:-0.174312 48:-0.429658 49:-0.490566 50:-0.330798 51:-0.677903 52:-0.757353 53:-0.766667 54:-0.799043 55:-0.788235 56:-0.868613 57:-0.884615 58:-0.970588 59:-0.993103 60:0.0529335 61:-0.181264 
465.5031275648761 1:-0.833698 2:-0.99246 3:-0.991656 4:0.174843 5:-0.00493195 6:-0.997225 7:0.482858 8:-0.999519 9:-0.998636 10:0.388558 11:-0.511013 12:-0.996712 13:-0.616126 14:-0.997431 15:-0.969111 16:-0.939808 17:-0.948342 18:-0.937342 19:-0.944974 20:-0.936148 21:-0.894004 22:-0.890504 23:-0.899753 24:-0.888602 25:-0.911711 26:-0.902552 27:-0.938761 28:-0.908445 29:-0.906191 30:-0.892217 31:-0.955035 32:-0.896798 33:-0.914514 34:-0.950001 35:-0.986941 36:-0.947319 37:-0.844184 38:-0.67666 39:-0.789062 40:-0.917241 41:-0.960265 42:-0.969912 43:-0.951768 44:-0.815461 45:-0.852713 46:-0.858407 47:-0.779817 48:-0.802281 49:-0.792453 50:-0.406844 51:-0.7603 52:-0.727941 53:-0.68 54:-0.933014 55:-0.811765 56:-0.956204 57:-1 58:-0.941176 59:-0.972414 60:0.0237474 61:-0.24519 
32768 1:-0.996817 2:-0.910228 3:-0.924982 4:0.105162 5:0.021315 6:-0.938083 7:0.459648 8:-0.984556 9:-0.999981 10:0.388481 11:-0.511258 12:-0.999966 13:-0.616089 14:-0.999973 15:-0.898088 16:-0.95996 17:-1 18:-1 19:-1 20:-1 21:-1 22:-1 23:-1 24:-1 25:-0.93189 26:-0.985667 27:-1 28:-1 29:-1 30:-1 31:-1 32:-1 33:-0.919744 34:-0.974954 35:-0.996927 36:-1 37:-1 38:-1 39:-1 40:-1 41:-1 42:-1 43:-1 44:-1 45:-1 46:-1 47:-0.926606 48:-1 49:-1 50:-1 51:-1 52:-1 53:-1 54:-1 55:-1 56:-1 57:-1 58:-1 59:-1 60:-0.972418 61:-0.983917 
32768 1:-0.996618 2:-0.910228 3:-0.924911 4:0.104879 5:0.0218438 6:-0.937672 7:0.45912 8:-0.983932 9:-0.999979 10:0.38848 11:-0.511258 12:-0.999965 13:-0.616086 14:-0.999972 15:-0.901548 16:-0.954987 17:-1 18:-1 19:-1 20:-1 21:-1 22:-1 23:-1 24:-1 25:-0.949731 26:-0.978928 27:-1 28:-1 29:-1 30:-1 31:-1 32:-1 33:-0.909025 34:-0.97775 35:-0.996543 36:-1 37:-1 38:-1 39:-1 40:-1 41:-1 42:-1 43:-1 44:-1 45:-1 46:-1 47:-0.926606 48:-1 49:-1 50:-1 51:-1 52:-1 53:-1 54:-1 55:-1 56:-1 57:-1 58:-1 59:-1 60:-0.972208 61:-0.984648 
733.5736866384284 1:-0.63696 2:-0.999147 3:-0.99909 4:0.181806 5:-0.00594317 6:-0.996808 7:0.483661 8:-0.999941 9:-0.997566 10:0.388406 11:-0.511326 12:-0.998375 13:-0.616104 14:-0.998069 15:-0.958986 16:-0.940297 17:-0.950993 18:-0.919265 19:-0.949189 20:-0.904974 21:-0.973141 22:-0.8933 23:-0.972107 24:-0.893499 25:-0.962045 26:-0.881993 27:-0.954846 28:-0.868966 29:-0.947412 30:-0.874821 31:-0.94986 32:-0.883727 33:-0.951978 34:-0.90231 35:-0.984252 36:-0.981185 37:-0.978655 38:-0.965739 39:-0.942708 40:-0.924138 41:-0.849007 42:-0.900885 43:-0.752412 44:-0.680798 45:-0.341085 46:-0.362832 47:-0.235474 48:0.391635 49:0.572327 50:1 51:0.325843 52:-0.242647 53:-0.493333 54:-0.69378 55:-0.811765 56:-0.722628 57:-0.865385 58:-0.794118 59:-0.97931 60:-0.146983 61:0.288341 
32768 1:-0.990253 2:-0.991967 3:-0.995927 4:0.191258 5:-0.00843306 6:-0.973492 7:0.477587 8:-0.997763 9:-0.999968 10:0.388479 11:-0.511252 12:-0.999866 13:-0.616083 14:-0.999901 15:-1 16:-1 17:-1 18:-1 19:-1 20:-1 21:-1 22:-1 23:-1 24:-1 25:-1 26:-1 27:-1 28:-1 29:-0.962208 30:-0.995869 31:-1 32:-1 33:-0.807923 34:-0.933884 35:-0.992702 36:-0.990593 37:-0.997866 38:-0.995717 39:-1 40:-0.996552 41:-0.997351 42:-1 43:-0.990354 44:-0.990025 45:-0.992248 46:-0.988201 47:-1 48:-0.984791 49:-1 50:-0.992395 51:-1 52:-0.977941 53:-1 54:-0.961722 55:-1 56:-0.970803 57:-0.961538 58:-0.941176 59:-1 60:-0.368807 61:-0.672974 
13876.1333898837 1:-0.959021 2:-0.993632 3:-0.99624 4:0.187261 5:-0.00939761 6:-0.987929 7:0.47764 8:-0.9952 9:-0.99989 10:0.388462 11:-0.511472 12:-0.999379 13:-0.616067 14:-0.999562 15:-0.926426 16:-0.948002 17:-0.952312 18:-0.93278 19:-0.954661 20:-0.934955 21:-0.981953 22:-0.978512 23:-0.992979 24:-0.99006 25:-0.996834 26:-0.992315 27:-0.993005 28:-0.986575 29:-0.986763 30:-0.97668 31:-0.977138 32:-0.973226 33:-0.977355 34:-0.97983 35:-0.993086 36:-0.973659 37:-0.829242 38:-0.920771 39:-0.945312 40:-0.965517 41:-0.994702 42:-0.99823 43:-1 44:-0.995012 45:-0.984496 46:-0.976401 47:-0.993884 48:-0.977186 49:-0.987421 50:-1 51:-0.985019 52:-0.985294 53:-1 54:-0.980861 55:-1 56:-0.927007 57:-0.980769 58:-0.970588 59:-0.993103 60:-0.393793 61:-0.703415 
32768 1:-0.996021 2:-0.958064 3:-0.964066 4:0.213379 5:-0.00407501 6:-0.974074 7:0.485085 8:-0.999735 9:-0.999992 10:0.388482 11:-0.516354 12:-0.999845 13:-0.616088 14:-0.999895 15:-0.945695 16:-0.984296 17:-0.974779 18:-0.995959 19:-0.98299 20:-0.997459 21:-1 22:-1 23:-0.981438 24:-0.998211 25:-0.980972 26:-0.99829 27:-1 28:-1 29:-0.987144 30:-0.99982 31:-0.998772 32:-0.988905 33:-0.974168 34:-0.965508 35:-0.998848 36:-1 37:-0.997866 38:-0.997859 39:-0.997396 40:-0.993103 41:-0.994702 42:-1 43:-0.996785 44:-1 45:-0.992248 46:-0.976401 47:-0.987768 48:-1 49:-1 50:-0.984791 51:-0.992509 52:-1 53:-1 54:-0.990431 55:-0.988235 56:-0.985401 57:-1 58:-1 59:-1 60:-0.457697 61:-0.55128 
29999.68371598496 1:-0.979908 2:-0.96229 3:-0.966929 4:0.212075 5:-0.00321878 6:-0.974034 7:0.485879 8:-0.999513 9:-0.999932 10:0.3885 11:-0.511484 12:-0.99961 13:-0.616095 14:-0.999723 15:-0.992668 16:-0.984173 17:-0.980139 18:-0.98061 19:-0.971989 20:-0.975061 21:-1 22:-1 23:-0.943218 24:-0.954538 25:-0.924496 26:-0.944398 27:-1 28:-1 29:-0.911934 30:-0.919742 31:-0.949488 32:-0.971091 33:-0.976908 34:-0.968154 35:-0.987325 36:-0.983067 37:-0.993597 38:-0.989293 39:-0.986979 40:-0.982759 41:-0.981457 42:-0.989381 43:-0.977492 44:-0.98005 45:-0.953488 46:-0.970501 47:-1 48:-0.954373 49:-1 50:-0.984791 51:-0.992509 52:-1 53:-0.993333 54:-1 55:-1 56:-1 57:-1 58:-1 59:-1 60:-0.26014 61:-0.593066 
19871.81872011201 1:-0.978516 2:-0.962387 3:-0.964821 4:0.20654 5:-0.00924304 6:-0.983277 7:0.481359 8:-0.99935 9:-0.999909 10:0.388492 11:-0.511118 12:-0.999617 13:-0.615639 14:-0.999726 15:-0.965869 16:-0.939538 17:-0.969724 18:-0.940908 19:-1 20:-1 21:-0.978251 22:-0.943911 23:-1 24:-1 25:-0.965714 26:-0.943269 27:-0.964223 28:-0.939674 29:-1 30:-1 31:-0.981273 32:-0.932499 33:-0.960125 34:-0.973692 35:-0.995391 36:-0.977422 37:-0.953042 38:-0.982869 39:-1 40:-0.989655 41:-0.994702 42:-0.99646 43:-1 44:-0.990025 45:-0.937984 46:-0.964602 47:-0.981651 48:-0.977186 49:-1 50:-0.931559 51:-0.970037 52:-0.977941 53:-1 54:-0.961722 55:-0.976471 56:-0.956204 57:-0.961538 58:-0.970588 59:-0.993103 60:-0.327916 61:-0.595003 
32768 1:-0.994629 2:-0.957041 3:-0.956121 4:0.184333 5:0.0101612 6:-0.999634 7:0.484878 8:-0.990696 9:-0.999981 10:0.388479 11:-0.511254 12:-0.999945 13:-0.616086 14:-0.999959 15:-0.918304 16:-0.98514 17:-1 18:-1 19:-1 20:-1 21:-0.977516 22:-0.973962 23:-1 24:-1 25:-1 26:-1 27:-0.995719 28:-0.992679 29:-0.99692 30:-0.985844 31:-1 32:-1 33:-0.965449 34:-0.965232 35:-0.996159 36:-0.996237 37:-0.987193 38:-0.993576 39:-0.994792 40:-0.996552 41:-0.997351 42:-1 43:-1 44:-1 45:-1 46:-1 47:-1 48:-1 49:-1 50:-1 51:-1 52:-0.985294 53:-1 54:-0.990431 55:-1 56:-0.985401 57:-1 58:-1 59:-0.986207 60:-0.476681 61:-0.754229 
32768 1:-0.957032 2:-0.993632 3:-0.996949 4:0.172637 5:-0.00383628 6:-0.984481 7:0.478537 8:-0.997267 9:-0.999878 10:0.388478 11:-0.510959 12:-0.99904 13:-0.616128 14:-0.999333 15:-0.935509 16:-0.948986 17:-0.940525 18:-0.946227 19:-0.967553 20:-0.950802 21:-0.951157 22:-0.951128 23:-0.999101 24:-0.997219 25:-0.987431 26:-0.991606 27:-0.999155 28:-0.998546 29:-0.988195 30:-0.97628 31:-0.974575 32:-0.957355 33:-0.977129 34:-0.953842 35:-0.939697 36:-0.979304 37:-1 38:-1 39:-0.997396 40:-0.993103 41:-0.994702 42:-1 43:-0.996785 44:-0.995012 45:-1 46:-0.9941 47:-1 48:-0.992395 49:-0.981132 50:-0.969582 51:-0.955056 52:-0.970588 53:-0.953333 54:-0.904306 55:-0.964706 56:-0.970803 57:-0.980769 58:-0.941176 59:-0.993103 60:-0.240607 61:-0.744234 
1473.583347219005 1:-0.997414 2:-0.566115 3:-0.578262 4:0.30159 5:-0.0632685 6:-0.970916 7:0.469068 8:-0.98781 9:-0.999988 10:0.388478 11:-0.511256 12:-0.999921 13:-0.616082 14:-0.999947 15:-0.955971 16:-0.999749 17:-1 18:-1 19:-1 20:-1 21:-1 22:-1 23:-0.944827 24:-0.958411 25:-1 26:-1 27:-1 28:-1 29:-1 30:-1 31:-1 32:-1 33:-0.947504 34:-0.977264 35:-0.998848 36:-0.990593 37:-1 38:-0.997859 39:-1 40:-1 41:-1 42:-1 43:-0.996785 44:-1 45:-1 46:-1 47:-0.993884 48:-1 49:-1 50:-1 51:-0.962547 52:-1 53:-1 54:-0.990431 55:-1 56:-1 57:-1 58:-1 59:-1 60:-0.243862 61:-0.579158 
21657.98524932878 1:-0.998806 2:-0.541914 3:-0.558338 4:0.30633 5:-0.0548608 6:-0.970021 7:0.47128 8:-0.991466 9:-0.999993 10:0.388479 11:-0.511263 12:-0.999944 13:-0.61608 14:-0.999962 15:-0.987045 16:-0.990631 17:-1 18:-1 19:-1 20:-1 21:-1 22:-1 23:-0.986097 24:-0.948599 25:-1 26:-1 27:-1 28:-1 29:-1 30:-1 31:-1 32:-1 33:-0.983194 34:-0.97919 35:-0.998848 36:-0.996237 37:-1 38:-1 39:-0.997396 40:-1 41:-1 42:-1 43:-1 44:-1 45:-1 46:-1 47:-1 48:-1 49:-0.993711 50:-1 51:-1 52:-1 53:-0.993333 54:-1 55:-1 56:-1 57:-0.980769 58:-0.970588 59:-1 60:-0.171641 61:-0.561369 
257.9325036456441 1:-0.554207 2:-0.999703 3:-0.999105 4:0.180957 5:-0.0060507 6:-0.99905 7:0.48347 8:-0.999484 9:-0.997097 10:0.40452 11:-0.530244 12:-0.997922 13:-0.615989 14:-0.99826 15:-0.923317 16:-0.931069 17:-0.898674 18:-0.895575 19:-0.895534 20:-0.930651 21:-0.897421 22:-0.933378 23:-0.868767 24:-0.942346 25:-0.889407 26:-0.926023 27:-0.894224 28:-0.915985 29:-0.88735 30:-0.916671 31:-0.882291 32:-0.913443 33:-0.957874 34:-0.901076 35:-0.942385 36:0.450611 37:0.133404 38:-0.616702 39:-0.765625 40:-0.768966 41:-0.827815 42:-0.927434 43:-0.81672 44:-0.720698 45:-0.75969 46:-0.764012 47:-0.840979 48:-0.764259 49:-0.880503 50:-0.81749 51:-0.790262 52:-0.897059 53:-0.973333 54:-0.942584 55:-0.976471 56:-0.854015 57:-0.961538 58:-0.970588 59:-1 60:-0.18037 61:-0.596195 
199.5060609903664 1:-0.733837 2:-0.997902 3:-0.996705 4:0.181619 5:-0.00704394 6:-0.999173 7:0.483031 8:-0.999224 9:-0.997522 10:0.38848 11:-0.511249 12:-0.997771 13:-0.616107 14:-0.997855 15:-0.901739 16:-0.953292 17:-0.931245 18:-0.953947 19:-0.942611 20:-0.909817 21:-0.888943 22:-0.880271 23:-0.896732 24:-0.888216 25:-0.899371 26:-0.881689 27:-0.924266 28:-0.875057 29:-0.918342 30:-0.885381 31:-0.938753 32:-0.885244 33:-0.951801 34:-0.887645 35:-0.971961 36:-0.689558 37:-0.310566 38:-0.689507 39:-0.856771 40:-0.841379 41:-0.944371 42:-0.950442 43:-0.92926 44:-0.850374 45:-0.775194 46:-0.846608 47:-0.840979 48:-0.756654 49:-0.578616 50:-0.520913 51:-0.438202 52:-0.764706 53:-0.753333 54:-0.751196 55:-0.882353 56:-0.927007 57:-0.923077 58:-0.970588 59:-0.993103 60:0.222592 61:-0.290054 
30410.2659298533 1:-0.993038 2:-0.808457 3:-0.809374 4:0.191213 5:-0.0209851 6:-0.999373 7:0.4827 8:-0.997883 9:-0.999946 10:0.388481 11:-0.511309 12:-0.999803 13:-0.616087 14:-0.999857 15:-0.939119 16:-0.948898 17:-1 18:-1 19:-1 20:-1 21:-0.967733 22:-0.951867 23:-1 24:-1 25:-1 26:-1 27:-0.946214 28:-0.906175 29:-1 30:-1 31:-1 32:-1 33:-0.952578 34:-0.904763 35:-0.999232 36:-0.988711 37:-0.987193 38:-0.982869 39:-1 40:-0.996552 41:-0.997351 42:-0.99823 43:-1 44:-0.995012 45:-1 46:-1 47:-0.993884 48:-1 49:-1 50:-0.992395 51:-1 52:-0.992647 53:-1 54:-1 55:-0.988235 56:-0.985401 57:-1 58:-0.970588 59:-0.951724 60:0.524494 61:-0.10859 
9104.082494893053 1:-0.999602 2:-0.498802 3:-0.524195 4:0.388602 5:-0.0124194 6:-0.924081 7:0.481033 8:-0.99959 9:-0.999992 10:0.388481 11:-0.511232 12:-0.999974 13:-0.616088 14:-0.999981 15:-0.983201 16:-0.92958 17:-1 18:-1 19:-1 20:-1 21:-1 22:-1 23:-1 24:-1 25:-1 26:-1 27:-1 28:-1 29:-1 30:-1 31:-1 32:-1 33:-0.92889 34:-0.953148 35:-0.999616 36:-0.998119 37:-1 38:-1 39:-1 40:-1 41:-1 42:-1 43:-1 44:-1 45:-1 46:-1 47:-1 48:-1 49:-1 50:-0.984791 51:-1 52:-1 53:-1 54:-1 55:-1 56:-0.985401 57:-1 58:-0.970588 59:-1 60:-0.297036 61:-0.365864 
32768 1:-1 2:-0.478544 3:-0.506759 4:0.400211 5:-0.0153248 6:-0.918402 7:0.479856 8:-0.999743 9:-0.999996 10:0.388479 11:-0.511251 12:-0.999984 13:-0.616088 14:-0.999988 15:-0.958089 16:-0.981236 17:-1 18:-1 19:-1 20:-1 21:-1 22:-1 23:-1 24:-1 25:-1 26:-1 27:-1 28:-1 29:-1 30:-1 31:-1 32:-1 33:-0.934899 34:-0.965753 35:-0.999616 36:-1 37:-1 38:-1 39:-0.997396 40:-1 41:-1 42:-1 43:-1 44:-1 45:-1 46:-1 47:-1 48:-1 49:-0.993711 50:-1 51:-1 52:-1 53:-1 54:-1 55:-0.988235 56:-1 57:-1 58:-1 59:-1 60:-0.435017 61:-0.589879 
32768 1:-0.990849 2:-0.922948 3:-0.995119 4:0.138966 5:-0.00434807 6:-0.702948 7:0.470485 8:-0.99896 9:-0.999973 10:0.388386 11:-0.51408 12:-0.999769 13:-0.616089 14:-0.99984 15:-0.983782 16:-0.994879 17:-0.968904 18:-0.991766 19:-0.986843 20:-0.999264 21:-0.942457 22:-0.980258 23:-1 24:-1 25:-0.92657 26:-0.965324 27:-1 28:-1 29:-0.916302 30:-0.973425 31:-1 32:-1 33:-0.936463 34:-0.982503 35:-0.998848 36:-0.996237 37:-0.995731 38:-0.995717 39:-0.994792 40:-1 41:-0.997351 42:-0.99646 43:-0.993569 44:-0.990025 45:-0.992248 46:-0.988201 47:-0.987768 48:-0.984791 49:-0.987421 50:-0.961977 51:-0.985019 52:-1 53:-0.946667 54:-0.980861 55:-0.976471 56:-1 57:-0.980769 58:-0.911765 59:-1 60:-0.150807 61:-0.224223 
32768 1:-0.993038 2:-0.92036 3:-0.995095 4:0.138382 5:-0.00458977 6:-0.694208 7:0.47216 8:-0.999198 9:-0.999983 10:0.388484 11:-0.511157 12:-0.999797 13:-0.616094 14:-0.999861 15:-0.982991 16:-0.994072 17:-0.97265 18:-0.994801 19:-1 20:-1 21:-0.952698 22:-0.977711 23:-1 24:-1 25:-0.940429 26:-0.952703 27:-1 28:-1 29:-0.928169 30:-0.972129 31:-1 32:-1 33:-0.950851 34:-0.990222 35:-0.999616 36:-1 37:-0.993597 38:-0.997859 39:-1 40:-0.986207 41:-0.992053 42:-0.99823 43:-0.996785 44:-1 45:-0.984496 46:-1 47:-0.987768 48:-0.984791 49:-1 50:-0.984791 51:-0.985019 52:-0.970588 53:-0.993333 54:-0.971292 55:-1 56:-0.970803 57:-1 58:-0.941176 59:-0.97931 60:-0.179131 61:-0.231627 
32768 1:-0.995425 2:-0.918014 3:-0.995063 4:0.137198 5:-0.00351156 6:-0.681094 7:0.463543 8:-0.997853 9:-0.999982 10:0.388479 11:-0.51125 12:-0.999877 13:-0.616092 14:-0.999913 15:-0.993952 16:-0.999604 17:-0.99451 18:-0.996284 19:-1 20:-1 21:-0.973389 22:-0.982923 23:-1 24:-1 25:-0.935323 26:-0.941008 27:-1 28:-1 29:-0.951146 30:-0.980242 31:-1 32:-1 33:-0.957205 34:-0.978155 35:-0.998464 36:-1 37:-0.997866 38:-1 39:-0.997396 40:-0.993103 41:-1 42:-0.99823 43:-0.993569 44:-1 45:-0.984496 46:-0.988201 47:-1 48:-0.984791 49:-0.981132 50:-0.992395 51:-1 52:-0.985294 53:-1 54:-1 55:-0.988235 56:-1 57:-1 58:-0.970588 59:-0.986207 60:-0.13873 61:-0.335708 
32768 1:-0.997215 2:-0.913122 3:-0.99573 4:0.138588 5:-0.00146784 6:-0.664107 7:0.444329 8:-0.992313 9:-0.999978 10:0.38848 11:-0.511535 12:-0.999969 13:-0.616217 14:-0.999972 15:-0.992891 16:-0.997055 17:-1 18:-1 19:-1 20:-1 21:-0.976331 22:-0.972175 23:-1 24:-1 25:-1 26:-1 27:-0.876282 28:-0.965774 29:-1 30:-1 31:-1 32:-1 33:-0.982681 34:-0.991162 35:-0.998464 36:-0.998119 37:-0.997866 38:-1 39:-0.994792 40:-0.996552 41:-0.994702 42:-0.99646 43:-0.996785 44:-0.995012 45:-1 46:-0.9941 47:-1 48:-1 49:-0.993711 50:-1 51:-1 52:-1 53:-1 54:-1 55:-1 56:-1 57:-1 58:-0.970588 59:-1 60:-0.336331 61:-0.654635 
32768 1:-0.997613 2:-0.890895 3:-0.992547 4:0.118859 5:-0.0131167 6:-0.57831 7:0.534745 8:-0.988724 9:-0.999946 10:0.388479 11:-0.511268 12:-0.999944 13:-0.61609 14:-0.999952 15:-0.82569 16:-0.977514 17:-1 18:-1 19:-1 20:-1 21:-1 22:-1 23:-0.987882 24:-0.930274 25:-1 26:-1 27:-1 28:-1 29:-1 30:-1 31:-1 32:-1 33:-0.946861 34:-0.990252 35:-0.998848 36:-1 37:-1 38:-0.993576 39:-0.986979 40:-1 41:-1 42:-1 43:-0.996785 44:-1 45:-1 46:-1 47:-0.993884 48:-1 49:-0.987421 50:-1 51:-1 52:-1 53:-1 54:-1 55:-1 56:-1 57:-0.980769 58:-1 59:-1 60:0.190557 61:-0.374175 
32768 1:-0.997613 2:-0.891113 3:-0.992544 4:0.118832 5:-0.0131166 6:-0.57812 7:0.534742 8:-0.988699 9:-0.999943 10:0.388427 11:-0.511213 12:-0.999944 13:-0.616192 14:-0.999951 15:-0.82425 16:-0.979682 17:-1 18:-1 19:-1 20:-1 21:-1 22:-1 23:-0.987047 24:-0.927463 25:-1 26:-1 27:-1 28:-1 29:-1 30:-1 31:-1 32:-1 33:-0.944908 34:-0.993246 35:-0.998848 36:-1 37:-1 38:-0.993576 39:-0.986979 40:-1 41:-1 42:-1 43:-1 44:-1 45:-1 46:-0.9941 47:-0.993884 48:-1 49:-0.993711 50:-1 51:-1 52:-1 53:-1 54:-0.990431 55:-1 56:-0.985401 57:-1 58:-1 59:-1 60:0.228369 61:-0.345795 
32768 1:-0.997016 2:-0.876501 3:-0.89386 4:0.08555 5:0.0291186 6:-0.930314 7:0.456162 8:-0.981859 9:-0.999983 10:0.388478 11:-0.511263 12:-0.999963 13:-0.616148 14:-0.999973 15:-0.992614 16:-0.979963 17:-1 18:-1 19:-1 20:-1 21:-1 22:-1 23:-0.959544 24:-0.942617 25:-0.994888 26:-0.92558 27:-1 28:-1 29:-1 30:-1 31:-1 32:-1 33:-0.968585 34:-0.962719 35:-0.999616 36:-1 37:-0.997866 38:-1 39:-1 40:-0.993103 41:-0.994702 42:-1 43:-1 44:-0.995012 45:-0.984496 46:-1 47:-0.993884 48:-0.984791 49:-0.993711 50:-0.992395 51:-1 52:-0.977941 53:-1 54:-1 55:-1 56:-1 57:-0.980769 58:-0.970588 59:-1 60:-0.709148 61:-0.734628 
32768 1:-0.995226 2:-0.941081 3:-0.946636 4:0.224518 5:-0.0205293 6:-0.969079 7:0.472911 8:-0.993935 9:-0.999975 10:0.388479 11:-0.511264 12:-0.999937 13:-0.61609 14:-0.99995 15:-0.906416 16:-0.976534 17:-1 18:-1 19:-0.957061 20:-0.981221 21:-1 22:-1 23:-1 24:-1 25:-0.950031 26:-0.987347 27:-1 28:-1 29:-1 30:-1 31:-1 32:-1 33:-0.993848 34:-0.99711 35:-0.999232 36:-0.998119 37:-0.997866 38:-1 39:-0.992188 40:-0.989655 41:-1 42:-0.99823 43:-0.993569 44:-0.995012 45:-0.968992 46:-0.9941 47:-1 48:-0.992395 49:-0.993711 50:-1 51:-0.992509 52:-1 53:-1 54:-0.980861 55:-0.988235 56:-1 57:-0.980769 58:-0.970588 59:-0.993103 60:-0.38667 61:-0.545789 
32768 1:-0.993038 2:-0.891439 3:-0.907277 4:0.266063 5:-0.0126676 6:-0.933505 7:0.478096 8:-0.999124 9:-0.999961 10:0.388484 11:-0.511237 12:-0.999776 13:-0.616094 14:-0.99984 15:-0.952591 16:-0.974531 17:-1 18:-1 19:-0.937567 20:-0.982924 21:-1 22:-1 23:-1 24:-1 25:-0.934998 26:-0.967999 27:-1 28:-1 29:-0.895349 30:-0.941343 31:-1 32:-1 33:-0.936178 34:-0.952102 35:-0.995007 36:-0.996237 37:-1 38:-0.997859 39:-0.997396 40:-1 41:-0.997351 42:-0.99469 43:-1 44:-0.995012 45:-0.976744 46:-1 47:-1 48:-0.992395 49:-0.981132 50:-0.992395 51:-0.992509 52:-1 53:-0.993333 54:-1 55:-0.952941 56:-1 57:-1 58:-0.941176 59:-0.993103 60:-0.192995 61:-0.572992 
22872.09575367947 1:-0.993634 2:-0.882682 3:-0.898211 4:0.280039 5:-0.00696475 6:-0.918268 7:0.482685 8:-0.999316 9:-0.99994 10:0.388478 11:-0.508868 12:-0.999876 13:-0.616393 14:-0.99991 15:-0.987189 16:-0.947219 17:-1 18:-1 19:-1 20:-1 21:-0.955726 22:-0.934869 23:-1 24:-1 25:-1 26:-1 27:-0.8471 28:-0.963236 29:-1 30:-1 31:-1 32:-1 33:-0.953135 34:-0.969029 35:-0.996927 36:-1 37:-1 38:-0.997859 39:-1 40:-0.996552 41:-0.992053 42:-0.99469 43:-0.990354 44:-0.995012 45:-0.992248 46:-0.9941 47:-1 48:-0.992395 49:-0.987421 50:-1 51:-1 52:-0.992647 53:-0.993333 54:-1 55:-1 56:-1 57:-0.961538 58:-0.911765 59:-0.972414 60:-0.116965 61:-0.43535 
1400.64099482637 1:-0.996021 2:-0.875164 3:-0.895103 4:0.285279 5:-0.0177708 6:-0.912277 7:0.473199 8:-0.997887 9:-0.999983 10:0.38848 11:-0.511229 12:-0.999951 13:-0.61609 14:-0.999963 15:-0.975478 16:-0.933666 17:-1 18:-1 19:-1 20:-1 21:-1 22:-1 23:-1 24:-1 25:-0.942215 26:-0.948346 27:-1 28:-1 29:-1 30:-1 31:-1 32:-1 33:-0.978238 34:-0.973899 35:-0.998848 36:-0.998119 37:-0.995731 38:-0.997859 39:-0.994792 40:-0.996552 41:-0.997351 42:-0.99823 43:-0.993569 44:-1 45:-1 46:-1 47:-0.993884 48:-1 49:-1 50:-1 51:-0.992509 52:-1 53:-0.993333 54:-1 55:-1 56:-0.970803 57:-1 58:-0.941176 59:-0.97931 60:-0.320024 61:-0.172038 
8979.97495718527 1:-0.997215 2:-0.865546 3:-0.888755 4:0.301711 5:-0.00428401 6:-0.889308 7:0.485158 8:-0.999594 9:-0.999962 10:0.388478 11:-0.510826 12:-0.999951 13:-0.615927 14:-0.999957 15:-1 16:-1 17:-1 18:-1 19:-1 20:-1 21:-0.876748 22:-0.953674 23:-1 24:-1 25:-1 26:-1 27:-0.970581 28:-0.94892 29:-1 30:-1 31:-1 32:-1 33:-0.97753 34:-0.977711 35:-0.998464 36:-1 37:-1 38:-1 39:-0.997396 40:-1 41:-0.997351 42:-0.99646 43:-0.996785 44:-0.995012 45:-1 46:-0.9941 47:-0.993884 48:-1 49:-0.993711 50:-1 51:-1 52:-0.985294 53:-0.993333 54:-1 55:-0.988235 56:-1 57:-1 58:-0.970588 59:-1 60:-0.264227 61:-0.500999 
32768 1:-0.99443 2:-0.842768 3:-0.880012 4:0.329241 5:-0.00726118 6:-0.845778 7:0.482155 8:-0.999651 9:-0.999955 10:0.388485 11:-0.511278 12:-0.999877 13:-0.616093 14:-0.999908 15:-0.98338 16:-0.922974 17:-1 18:-1 19:-1 20:-1 21:-0.951422 22:-0.924008 23:-1 24:-1 25:-1 26:-1 27:-0.959375 28:-0.941013 29:-1 30:-1 31:-1 32:-1 33:-0.989719 34:-0.972269 35:-0.999232 36:-1 37:-1 38:-1 39:-1 40:-1 41:-1 42:-0.99646 43:-1 44:-0.985037 45:-0.984496 46:-0.982301 47:-0.987768 48:-0.984791 49:-0.993711 50:-0.977186 51:-0.985019 52:-0.992647 53:-0.993333 54:-1 55:-1 56:-0.956204 57:-0.980769 58:-0.970588 59:-0.97931 60:-0.326834 61:-0.241899 
32768 1:-0.997215 2:-0.838158 3:-0.877852 4:0.334804 5:-0.0151986 6:-0.837149 7:0.473345 8:-0.998874 9:-0.999993 10:0.38848 11:-0.511264 12:-0.999944 13:-0.616087 14:-0.999961 15:-0.980941 16:-0.96815 17:-1 18:-1 19:-1 20:-1 21:-1 22:-1 23:-1 24:-1 25:-0.941496 26:-0.984774 27:-1 28:-1 29:-1 30:-1 31:-1 32:-1 33:-0.963193 34:-0.960728 35:-0.999616 36:-1 37:-0.995731 38:-0.993576 39:-0.997396 40:-1 41:-1 42:-1 43:-1 44:-0.995012 45:-0.976744 46:-0.988201 47:-1 48:-0.992395 49:-1 50:-0.992395 51:-1 52:-0.992647 53:-1 54:-1 55:-0.988235 56:-1 57:-1 58:-0.970588 59:-1 60:-0.301466 61:-0.290223 
5209.496930376881 1:-0.974339 2:-0.96158 3:-0.960221 4:0.184422 5:-0.00718876 6:-0.99953 7:0.483358 8:-0.99984 9:-0.999865 10:0.388465 11:-0.511249 12:-0.999511 13:-0.616088 14:-0.999634 15:-0.977823 16:-0.954593 17:-0.991425 18:-0.953427 19:-1 20:-1 21:-0.992991 22:-0.984058 23:-0.979302 24:-0.918414 25:-0.980076 26:-0.940894 27:-0.965352 28:-0.926633 29:-1 30:-1 31:-0.948456 32:-0.895512 33:-0.97624 34:-0.911855 35:-0.996927 36:-0.998119 37:-1 38:-0.997859 39:-0.997396 40:-0.986207 41:-0.997351 42:-0.99646 43:-0.977492 44:-0.970075 45:-0.914729 46:-0.929204 47:-0.944954 48:-0.885932 49:-0.974843 50:-0.931559 51:-0.910112 52:-0.963235 53:-0.96 54:-0.990431 55:-0.976471 56:-0.868613 57:-0.961538 58:-0.911765 59:-0.986207 60:-0.0426582 61:0.0987571 
12487.56734837278 1:-0.979113 2:-0.921057 3:-0.931211 4:0.239211 5:0.00259405 6:-0.957464 7:0.489992 8:-0.998014 9:-0.999862 10:0.388451 11:-0.511159 12:-0.999296 13:-0.6161 14:-0.999502 15:-0.934757 16:-0.947315 17:-0.928155 18:-0.949615 19:-1 20:-1 21:-0.933389 22:-0.940653 23:-0.947801 24:-0.937005 25:-1 26:-1 27:-0.954064 28:-0.885667 29:-1 30:-1 31:-0.964825 32:-0.910092 33:-0.959832 34:-0.968509 35:-0.999616 36:-1 37:-1 38:-0.993576 39:-0.997396 40:-1 41:-0.994702 42:-0.987611 43:-0.987138 44:-0.98005 45:-0.968992 46:-0.970501 47:-0.95107 48:-0.954373 49:-0.924528 50:-0.91635 51:-0.977528 52:-0.963235 53:-0.953333 54:-0.961722 55:-0.976471 56:-0.854015 57:-0.884615 58:-0.882353 59:-1 60:-0.24001 61:0.0799108 
3128.431991947854 1:-0.982693 2:-0.903941 3:-0.915788 4:0.252077 5:-0.00199604 6:-0.94854 7:0.486509 8:-0.999272 9:-0.999851 10:0.389176 11:-0.511096 12:-0.999398 13:-0.617026 14:-0.999567 15:-0.929562 16:-0.89596 17:-1 18:-1 19:-0.95779 20:-0.91379 21:-1 22:-1 23:-0.963257 24:-0.922702 25:-1 26:-1 27:-0.9533 28:-0.931999 29:-0.959408 30:-0.922011 31:-0.930823 32:-0.901098 33:-0.947981 34:-0.935394 35:-0.999616 36:-1 37:-0.997866 38:-0.995717 39:-0.997396 40:-0.989655 41:-0.989404 42:-0.99646 43:-0.996785 44:-0.990025 45:-0.984496 46:-0.970501 47:-0.957187 48:-0.908745 49:-0.949686 50:-0.961977 51:-0.970037 52:-0.977941 53:-0.98 54:-1 55:-0.952941 56:-0.941606 57:-0.865385 58:-0.852941 59:-0.965517 60:-0.167803 61:0.064898 
8210.340203171665 1:-0.996419 2:-0.795178 3:-0.846272 4:0.374287 5:0.00464639 6:-0.795998 7:0.495285 8:-0.998738 9:-0.999978 10:0.388478 11:-0.511326 12:-0.999875 13:-0.616091 14:-0.99991 15:-0.989895 16:-0.987968 17:-1 18:-1 19:-1 20:-1 21:-0.963336 22:-0.971427 23:-1 24:-1 25:-1 26:-1 27:-0.895834 28:-0.989645 29:-1 30:-1 31:-1 32:-1 33:-0.903274 34:-0.969332 35:-0.999616 36:-1 37:-1 38:-0.997859 39:-1 40:-1 41:-0.997351 42:-0.99292 43:-1 44:-0.990025 45:-0.984496 46:-1 47:-0.975535 48:-0.992395 49:-0.993711 50:-0.992395 51:-0.992509 52:-0.992647 53:-0.986667 54:-1 55:-1 56:-1 57:-1 58:-1 59:-1 60:-0.18736 61:0.0373644 
32768 1:-0.995425 2:-0.787726 3:-0.842723 4:0.386738 5:0.0219217 6:-0.774162 7:0.515609 8:-0.992201 9:-0.999963 10:0.38848 11:-0.511178 12:-0.99983 13:-0.616033 14:-0.999876 15:-0.982161 16:-0.977 17:-1 18:-1 19:-1 20:-1 21:-1 22:-1 23:-1 24:-1 25:-1 26:-1 27:-0.940865 28:-0.982612 29:-1 30:-1 31:-1 32:-1 33:-0.904931 34:-0.950702 35:-0.999232 36:-1 37:-0.995731 38:-0.997859 39:-0.994792 40:-0.993103 41:-1 42:-1 43:-1 44:-1 45:-1 46:-0.982301 47:-1 48:-0.992395 49:-1 50:-0.992395 51:-0.985019 52:-0.992647 53:-0.98 54:-0.990431 55:-0.988235 56:-0.985401 57:-0.961538 58:-1 59:-0.986207 60:-0.13824 61:-0.0935992 
21396.50605277219 1:-0.989059 2:-0.891819 3:-0.895747 4:0.138714 5:-0.00058256 6:-0.986338 7:0.481575 8:-0.999469 9:-0.999928 10:0.388478 11:-0.511173 12:-0.999539 13:-0.616094 14:-0.999669 15:-0.974638 16:-0.972639 17:-1 18:-1 19:-0.974781 20:-0.944973 21:-1 22:-1 23:-0.96183 24:-0.9439 25:-0.989269 26:-0.968719 27:-0.988754 28:-0.990353 29:-0.966784 30:-0.968299 31:-1 32:-1 33:-0.970403 34:-0.913954 35:-0.99808 36:-0.971778 37:-0.98079 38:-0.989293 39:-0.984375 40:-1 41:-0.997351 42:-0.99469 43:-0.971061 44:-1 45:-0.984496 46:-0.9941 47:-1 48:-1 49:-1 50:-0.992395 51:-1 52:-1 53:-0.993333 54:-1 55:-1 56:-1 57:-1 58:-1 59:-0.993103 60:-0.300575 61:-0.613201 
9852.939460428282 1:-0.997414 2:-0.838688 3:-0.841471 4:0.145272 5:0.0450355 6:-0.9937 7:0.473711 8:-0.97468 9:-0.99999 10:0.388479 11:-0.511218 12:-0.999965 13:-0.61609 14:-0.999974 15:-0.982517 16:-0.991719 17:-1 18:-1 19:-1 20:-1 21:-1 22:-1 23:-0.956974 24:-0.94095 25:-1 26:-1 27:-1 28:-1 29:-1 30:-1 31:-1 32:-1 33:-0.969986 34:-0.966733 35:-0.99808 36:-1 37:-1 38:-0.997859 39:-1 40:-0.996552 41:-0.997351 42:-0.99823 43:-1 44:-1 45:-1 46:-0.9941 47:-1 48:-0.992395 49:-0.993711 50:-0.992395 51:-1 52:-1 53:-1 54:-1 55:-0.988235 56:-1 57:-0.980769 58:-0.970588 59:-0.993103 60:0.439163 61:-0.0363512 
32768 1:-0.999204 2:-0.621214 3:-0.626802 4:0.18544 5:0.0366379 6:-0.999884 7:0.484016 8:-0.992497 9:-0.999992 10:0.38848 11:-0.51123 12:-0.999936 13:-0.61609 14:-0.999954 15:-0.999037 16:-0.980445 17:-1 18:-1 19:-1 20:-1 21:-1 22:-1 23:-0.983736 24:-0.990691 25:-1 26:-1 27:-1 28:-1 29:-1 30:-1 31:-1 32:-1 33:-0.973996 34:-0.969195 35:-0.998848 36:-0.998119 37:-1 38:-1 39:-1 40:-0.996552 41:-0.997351 42:-1 43:-0.996785 44:-1 45:-1 46:-1 47:-1 48:-1 49:-1 50:-1 51:-0.992509 52:-1 53:-1 54:-1 55:-1 56:-1 57:-1 58:-1 59:-1 60:-0.602448 61:-0.715863 
2313.332398884877 1:-0.989258 2:-0.810759 3:-0.826183 4:0.299791 5:-0.000149915 6:-0.931197 7:0.487028 8:-0.999571 9:-0.999897 10:0.388465 11:-0.511268 12:-0.99942 13:-0.616087 14:-0.99958 15:-0.946171 16:-0.87862 17:-1 18:-1 19:-0.953494 20:-0.916769 21:-1 22:-1 23:-0.948499 24:-0.865327 25:-1 26:-1 27:-1 28:-1 29:-0.978529 30:-0.942786 31:-1 32:-1 33:-0.996255 34:-0.952565 35:-0.997311 36:-0.98683 37:-0.995731 38:-0.997859 39:-0.997396 40:-1 41:-1 42:-0.99823 43:-0.993569 44:-0.995012 45:-1 46:-0.9941 47:-0.993884 48:-1 49:-0.993711 50:-0.992395 51:-0.985019 52:-1 53:-0.993333 54:-0.971292 55:-1 56:-1 57:-0.903846 58:-0.941176 59:-0.868966 60:1 61:0.516588 
27361.17934585047 1:-0.997812 2:-0.863116 3:-0.870263 4:0.254907 5:-0.0311469 6:-0.964089 7:0.470815 8:-0.992487 9:-0.999992 10:0.38848 11:-0.51125 12:-0.99996 13:-0.616088 14:-0.999972 15:-0.950205 16:-0.947975 17:-1 18:-1 19:-1 20:-1 21:-1 22:-1 23:-1 24:-1 25:-0.992726 26:-0.992648 27:-1 28:-1 29:-1 30:-1 31:-1 32:-1 33:-0.99138 34:-0.991059 35:-0.999616 36:-1 37:-0.997866 38:-1 39:-1 40:-1 41:-1 42:-0.99823 43:-0.996785 44:-0.995012 45:-1 46:-0.9941 47:-1 48:-1 49:-0.993711 50:-1 51:-1 52:-0.985294 53:-1 54:-0.980861 55:-1 56:-0.970803 57:-0.961538 58:-1 59:-1 60:-0.144017 61:0.265042 
32768 1:-0.971951 2:-0.988632 3:-0.996402 4:0.192536 5:-0.00271115 6:-0.963558 7:0.493647 8:-0.995211 9:-0.999859 10:0.388584 11:-0.511226 12:-0.999888 13:-0.61609 14:-0.999879 15:-0.999807 16:-0.90612 17:-0.981761 18:-0.88531 19:-0.940587 20:-0.931854 21:-0.972358 22:-0.966604 23:-0.972125 24:-0.911834 25:-0.995822 26:-0.993787 27:-0.975262 28:-0.902802 29:-1 30:-1 31:-0.967539 32:-0.909801 33:-0.974456 34:-0.943933 35:-0.993086 36:-0.994356 37:-0.989328 38:-0.991435 39:-0.989583 40:-0.962069 41:-0.989404 42:-0.982301 43:-0.987138 44:-0.985037 45:-0.968992 46:-0.976401 47:-0.975535 48:-0.901141 49:-0.962264 50:-0.954373 51:-0.910112 52:-0.933824 53:-0.966667 54:-0.913876 55:-0.952941 56:-1 57:-0.961538 58:-1 59:-0.993103 60:-0.220864 61:-0.362511 
25717.79601481867 1:-0.996419 2:-0.683051 3:-0.701004 4:0.324321 5:0.0224373 6:-0.942076 7:0.495474 8:-0.995731 9:-0.999964 10:0.388482 11:-0.511257 12:-0.999922 13:-0.616089 14:-0.999937 15:-0.957824 16:-0.969665 17:-1 18:-1 19:-1 20:-1 21:-1 22:-1 23:-0.936721 24:-0.891217 25:-1 26:-1 27:-1 28:-1 29:-1 30:-1 31:-1 32:-1 33:-0.966462 34:-0.965724 35:-0.999616 36:-0.998119 37:-0.989328 38:-0.991435 39:-1 40:-0.993103 41:-0.997351 42:-0.99823 43:-1 44:-1 45:-1 46:-1 47:-0.987768 48:-0.992395 49:-1 50:-1 51:-1 52:-1 53:-0.986667 54:-1 55:-1 56:-1 57:-0.961538 58:-1 59:-1 60:-0.123965 61:-0.48394 
19969.80360534173 1:-0.971951 2:-0.988757 3:-0.996403 4:0.192533 5:-0.00271238 6:-0.963569 7:0.493642 8:-0.99521 9:-0.999857 10:0.388561 11:-0.511236 12:-0.999888 13:-0.616094 14:-0.999878 15:-0.998583 16:-0.908862 17:-0.98355 18:-0.887285 19:-0.936451 20:-0.938819 21:-0.978615 22:-0.96614 23:-0.978079 24:-0.910094 25:-0.993838 26:-0.997139 27:-0.974518 28:-0.904073 29:-1 30:-1 31:-0.968806 32:-0.933163 33:-0.975889 34:-0.940372 35:-0.993086 36:-0.994356 37:-0.993597 38:-0.987152 39:-0.992188 40:-0.982759 41:-0.97351 42:-0.980531 43:-0.983923 44:-0.995012 45:-0.968992 46:-0.982301 47:-0.975535 48:-0.961977 49:-0.924528 50:-0.946768 51:-0.932584 52:-0.941176 53:-0.953333 54:-0.885167 55:-0.941176 56:-0.970803 57:-1 58:-0.970588 59:-0.993103 60:-0.231306 61:-0.365321 
6599.334171424318 1:-0.995425 2:-0.95803 3:-0.996426 4:0.154068 5:0.00135962 6:-0.844393 7:0.436637 8:-0.976408 9:-0.99997 10:0.388467 11:-0.511178 12:-0.999978 13:-0.61609 14:-0.999977 15:-0.930055 16:-0.938581 17:-1 18:-1 19:-1 20:-1 21:-0.888189 22:-0.974886 23:-1 24:-1 25:-1 26:-1 27:-0.926263 28:-0.984064 29:-1 30:-1 31:-1 32:-1 33:-0.988177 34:-0.989023 35:-0.997695 36:-0.992474 37:-1 38:-1 39:-1 40:-0.993103 41:-0.992053 42:-1 43:-1 44:-1 45:-0.984496 46:-1 47:-0.981651 48:-0.984791 49:-0.993711 50:-0.992395 51:-1 52:-0.992647 53:-0.993333 54:-0.990431 55:-1 56:-1 57:-1 58:-1 59:-1 60:-0.283843 61:-0.533015 
32768 1:-0.987468 2:-0.938732 3:-0.994583 4:0.141573 5:-0.00470723 6:-0.763575 7:0.47476 8:-0.999254 9:-0.999955 10:0.388475 11:-0.511146 12:-0.99961 13:-0.616084 14:-0.999732 15:-0.956055 16:-0.972079 17:-0.941332 18:-0.99125 19:-1 20:-1 21:-0.946765 22:-0.966594 23:-0.944326 24:-0.990518 25:-0.960371 26:-0.98294 27:-0.945246 28:-0.984617 29:-1 30:-1 31:-0.963004 32:-0.979867 33:-0.957057 34:-0.968929 35:-0.998848 36:-0.990593 37:-0.995731 38:-0.995717 39:-0.994792 40:-0.996552 41:-0.994702 42:-0.99823 43:-0.996785 44:-0.975062 45:-0.953488 46:-0.941003 47:-0.987768 48:-1 49:-0.968553 50:-0.977186 51:-0.985019 52:-0.970588 53:-0.993333 54:-0.961722 55:-0.988235 56:-0.985401 57:-0.942308 58:-0.970588 59:-1 60:-0.401669 61:-0.471738 
402.4257008795613 1:-0.979511 2:-0.938363 3:-0.994488 4:0.141162 5:-0.00456681 6:-0.765059 7:0.474014 8:-0.999199 9:-0.999895 10:0.388482 11:-0.512259 12:-0.999491 13:-0.616467 14:-0.999633 15:-0.912943 16:-0.984669 17:-0.920373 18:-0.980942 19:-1 20:-1 21:-0.902145 22:-0.967197 23:-0.878297 24:-0.969744 25:-1 26:-1 27:-0.891362 28:-0.969452 29:-1 30:-1 31:-0.940496 32:-0.962107 33:-0.947728 34:-0.969933 35:-0.998464 36:-0.990593 37:-0.991462 38:-0.995717 39:-1 40:-0.97931 41:-0.989404 42:-0.99469 43:-0.977492 44:-0.965087 45:-0.968992 46:-0.976401 47:-0.95107 48:-0.954373 49:-0.968553 50:-0.977186 51:-0.932584 52:-0.963235 53:-0.933333 54:-0.980861 55:-0.929412 56:-0.970803 57:-0.980769 58:-1 59:-1 60:-0.326805 61:-0.349973 
618.0326300396416 1:-0.997414 2:-0.891928 3:-0.997668 4:0.145341 5:-0.00261361 6:-0.567857 7:0.438325 8:-0.991989 9:-0.999989 10:0.388479 11:-0.511258 12:-0.999974 13:-0.616089 14:-0.999981 15:-0.955981 16:-0.979161 17:-1 18:-1 19:-1 20:-1 21:-1 22:-1 23:-0.970544 24:-0.998198 25:-0.909803 26:-0.969917 27:-1 28:-1 29:-1 30:-1 31:-1 32:-1 33:-0.992369 34:-0.998318 35:-0.999616 36:-0.998119 37:-0.997866 38:-1 39:-1 40:-1 41:-0.997351 42:-0.99646 43:-1 44:-1 45:-0.992248 46:-1 47:-0.993884 48:-1 49:-0.993711 50:-0.992395 51:-0.985019 52:-0.992647 53:-1 54:-0.990431 55:-1 56:-0.985401 57:-1 58:-1 59:-0.986207 60:0.242306 61:0.166029 
28515.10149044716 1:-0.99622 2:-0.889474 3:-0.997185 4:0.142288 5:-0.00445063 6:-0.550873 7:0.463395 8:-0.998222 9:-0.999974 10:0.388483 11:-0.511277 12:-0.999887 13:-0.616089 14:-0.999919 15:-0.988917 16:-0.952886 17:-1 18:-1 19:-0.978304 20:-0.957744 21:-1 22:-1 23:-0.941831 24:-0.986686 25:-1 26:-1 27:-1 28:-1 29:-0.910582 30:-0.930622 31:-1 32:-1 33:-0.987471 34:-0.985034 35:-0.998464 36:-0.998119 37:-0.995731 38:-0.993576 39:-0.997396 40:-1 41:-0.989404 42:-0.99823 43:-0.993569 44:-1 45:-1 46:-0.9941 47:-1 48:-0.977186 49:-1 50:-1 51:-1 52:-1 53:-1 54:-0.990431 55:-1 56:-1 57:-1 58:-1 59:-1 60:0.00444009 61:-0.40995 
32768 1:-0.995823 2:-0.901677 3:-0.997508 4:0.146584 5:-0.00473037 6:-0.602797 7:0.466932 8:-0.998766 9:-0.999983 10:0.388481 11:-0.51127 12:-0.999894 13:-0.61609 14:-0.999925 15:-0.977115 16:-0.978265 17:-1 18:-1 19:-0.981401 20:-0.984449 21:-1 22:-1 23:-0.93854 24:-0.979435 25:-1 26:-1 27:-1 28:-1 29:-0.931225 30:-0.938125 31:-1 32:-1 33:-0.985246 34:-0.992945 35:-0.99808 36:-0.996237 37:-0.997866 38:-0.991435 39:-0.989583 40:-1 41:-0.994702 42:-1 43:-1 44:-1 45:-0.984496 46:-1 47:-0.993884 48:-0.992395 49:-0.993711 50:-0.992395 51:-1 52:-1 53:-1 54:-1 55:-1 56:-1 57:-1 58:-0.970588 59:-1 60:-0.0524489 61:-0.462761 
32768 1:-0.997215 2:-0.918391 3:-0.996749 4:0.144368 5:-0.00021231 6:-0.672172 7:0.426907 8:-0.983214 9:-0.999967 10:0.388478 11:-0.511256 12:-0.999964 13:-0.616093 14:-0.99997 15:-0.994774 16:-0.995375 17:-1 18:-1 19:-1 20:-1 21:-0.869053 22:-0.96135 23:-1 24:-1 25:-1 26:-1 27:-0.865684 28:-0.982027 29:-1 30:-1 31:-1 32:-1 33:-0.992969 34:-0.999485 35:-0.999232 36:-0.994356 37:-1 38:-0.993576 39:-0.994792 40:-0.996552 41:-0.997351 42:-0.99823 43:-0.996785 44:-1 45:-0.984496 46:-1 47:-1 48:-1 49:-1 50:-1 51:-1 52:-1 53:-0.993333 54:-1 55:-1 56:-1 57:-0.980769 58:-1 59:-1 60:-0.282668 61:-0.631779 
32768 1:-0.996618 2:-0.922718 3:-0.995848 4:0.141579 5:0.00191498 6:-0.701935 7:0.418381 8:-0.976218 9:-0.99999 10:0.388482 11:-0.511257 12:-0.999959 13:-0.616089 14:-0.999971 15:-0.994211 16:-0.999657 17:-1 18:-1 19:-1 20:-1 21:-0.973488 22:-0.98716 23:-1 24:-1 25:-1 26:-1 27:-0.90997 28:-0.971 29:-1 30:-1 31:-1 32:-1 33:-0.960869 34:-0.989385 35:-0.999232 36:-0.996237 37:-1 38:-0.997859 39:-0.997396 40:-0.996552 41:-0.994702 42:-1 43:-1 44:-0.990025 45:-0.992248 46:-0.9941 47:-0.993884 48:-0.992395 49:-1 50:-1 51:-1 52:-1 53:-0.98 54:-0.990431 55:-0.988235 56:-0.985401 57:-1 58:-1 59:-1 60:-0.143336 61:-0.388109 
32768 1:-0.986274 2:-0.927508 3:-0.993211 4:0.133209 5:-0.00553282 6:-0.725451 7:0.480266 8:-0.999842 9:-0.999947 10:0.388497 11:-0.515568 12:-0.99967 13:-0.615696 14:-0.999765 15:-0.9546 16:-0.992913 17:-1 18:-1 19:-0.938374 20:-0.979484 21:-1 22:-1 23:-0.932627 24:-0.987449 25:-0.993469 26:-0.999818 27:-0.901033 28:-0.975565 29:-0.9197 30:-0.965351 31:-0.993138 32:-0.999993 33:-0.902955 34:-0.980061 35:-0.999616 36:-1 37:-0.997866 38:-0.993576 39:-0.997396 40:-0.975862 41:-0.97351 42:-0.987611 43:-0.977492 44:-0.945137 45:-0.968992 46:-0.982301 47:-0.981651 48:-1 49:-0.993711 50:-0.992395 51:-0.985019 52:-1 53:-0.966667 54:-1 55:-1 56:-1 57:-0.980769 58:-0.911765 59:-0.986207 60:-0.338211 61:-0.341134 
10348.6986312178 1:-0.995823 2:-0.925583 3:-0.991735 4:0.128852 5:-0.000855314 6:-0.72712 7:0.45428 8:-0.994697 9:-0.999988 10:0.388481 11:-0.511294 12:-0.999811 13:-0.616097 14:-0.999872 15:-0.984045 16:-0.995445 17:-1 18:-1 19:-1 20:-1 21:-1 22:-1 23:-1 24:-1 25:-0.982145 26:-0.990569 27:-0.955827 28:-0.966596 29:-1 30:-1 31:-0.95177 32:-0.980023 33:-0.978707 34:-0.993328 35:-0.998464 36:-1 37:-0.997866 38:-0.997859 39:-1 40:-0.993103 41:-1 42:-0.99646 43:-0.993569 44:-1 45:-1 46:-0.988201 47:-1 48:-1 49:-0.993711 50:-0.992395 51:-0.992509 52:-0.985294 53:-0.993333 54:-0.990431 55:-0.964706 56:-1 57:-1 58:-0.970588 59:-1 60:-0.0781398 61:-0.305021 
32768 1:-0.978118 2:-0.912195 3:-0.9915 4:0.119517 5:-0.0092267 6:-0.641396 7:0.503282 8:-0.99733 9:-0.999717 10:0.38877 11:-0.512226 12:-0.999762 13:-0.616073 14:-0.999796 15:-0.88482 16:-0.827136 17:-1 18:-1 19:-1 20:-1 21:-1 22:-1 23:-1 24:-1 25:-0.828033 26:-0.845884 27:-1 28:-1 29:-1 30:-1 31:-1 32:-1 33:-0.901938 34:-0.977024 35:-0.998848 36:-0.996237 37:-0.995731 38:-0.989293 39:-1 40:-1 41:-0.989404 42:-0.99292 43:-0.996785 44:-0.975062 45:-0.937984 46:-0.982301 47:-0.95107 48:-0.977186 49:-0.962264 50:-0.984791 51:-0.962547 52:-0.941176 53:-0.966667 54:-0.971292 55:-0.894118 56:-0.883212 57:-0.884615 58:-0.735294 59:-0.965517 60:-0.456365 61:-0.402336 
32768 1:-0.997016 2:-0.890677 3:-0.993149 4:0.121069 5:-0.0134688 6:-0.575166 7:0.539729 8:-0.985434 9:-0.999907 10:0.388381 11:-0.511082 12:-0.999935 13:-0.616093 14:-0.999948 15:-0.820021 16:-0.970808 17:-1 18:-1 19:-1 20:-1 21:-1 22:-1 23:-0.982852 24:-0.918762 25:-1 26:-1 27:-1 28:-1 29:-1 30:-1 31:-1 32:-1 33:-0.945729 34:-0.994674 35:-0.999232 36:-1 37:-1 38:-0.997859 39:-0.979167 40:-1 41:-1 42:-1 43:-0.993569 44:-0.995012 45:-1 46:-0.988201 47:-1 48:-1 49:-1 50:-0.992395 51:-1 52:-1 53:-0.993333 54:-1 55:-1 56:-1 57:-1 58:-1 59:-0.993103 60:0.087157 61:-0.351044 
32768 1:-0.996817 2:-0.890895 3:-0.992931 4:0.120267 5:-0.012858 6:-0.576936 7:0.534198 8:-0.988243 9:-0.999921 10:0.388319 11:-0.511248 12:-0.999935 13:-0.61592 14:-0.999948 15:-0.825963 16:-0.972944 17:-1 18:-1 19:-1 20:-1 21:-1 22:-1 23:-0.982088 24:-0.926061 25:-1 26:-1 27:-1 28:-1 29:-1 30:-1 31:-1 32:-1 33:-0.929472 34:-0.99476 35:-0.999616 36:-1 37:-1 38:-0.997859 39:-0.973958 40:-1 41:-1 42:-1 43:-0.993569 44:-1 45:-0.992248 46:-0.988201 47:-1 48:-1 49:-1 50:-0.992395 51:-1 52:-1 53:-0.993333 54:-1 55:-1 56:-1 57:-1 58:-1 59:-0.993103 60:0.0419728 61:-0.348632 
32768 1:-0.995425 2:-0.948795 3:-0.979897 4:0.123686 5:0.01623 6:-0.869193 7:0.428971 8:-0.962091 9:-0.999989 10:0.388481 11:-0.511263 12:-0.999963 13:-0.616088 14:-0.999973 15:-1 16:-1 17:-1 18:-1 19:-0.998129 20:-0.995661 21:-0.991718 22:-0.986463 23:-1 24:-1 25:-1 26:-1 27:-0.92302 28:-0.980272 29:-1 30:-1 31:-1 32:-1 33:-0.945067 34:-0.972897 35:-0.998464 36:-0.992474 37:-0.991462 38:-1 39:-0.994792 40:-1 41:-0.997351 42:-0.99646 43:-0.996785 44:-1 45:-1 46:-0.9941 47:-0.987768 48:-0.992395 49:-0.987421 50:-1 51:-1 52:-0.985294 53:-1 54:-1 55:-1 56:-1 57:-0.980769 58:-1 59:-1 60:-0.160039 61:-0.489933 
32768 1:-0.988064 2:-0.950317 3:-0.977826 4:0.124285 5:0.00164212 6:-0.881896 7:0.466301 8:-0.995519 9:-0.999944 10:0.388477 11:-0.511314 12:-0.999422 13:-0.616091 14:-0.999607 15:-0.990509 16:-0.986489 17:-0.995632 18:-0.997698 19:-0.967394 20:-0.931802 21:-1 22:-1 23:-0.956225 24:-0.986342 25:-1 26:-1 27:-0.95948 28:-0.991171 29:-0.935591 30:-0.981352 31:-0.925911 32:-0.982205 33:-0.943634 34:-0.971259 35:-0.995391 36:-0.98683 37:-0.985059 38:-0.978587 39:-0.984375 40:-0.993103 41:-0.994702 42:-0.99823 43:-0.993569 44:-1 45:-0.992248 46:-0.976401 47:-0.987768 48:-0.961977 49:-1 50:-1 51:-1 52:-1 53:-0.993333 54:-0.980861 55:-1 56:-1 57:-1 58:-1 59:-1 60:-0.263787 61:-0.598786 
32768 1:-0.99065 2:-0.953651 3:-0.975469 4:0.12742 5:0.0113774 6:-0.906311 7:0.450771 8:-0.980817 9:-0.999971 10:0.388474 11:-0.51124 12:-0.99986 13:-0.616088 14:-0.999902 15:-0.983931 16:-0.958279 17:-1 18:-1 19:-0.974891 20:-0.961208 21:-1 22:-1 23:-0.980159 24:-0.967967 25:-1 26:-1 27:-1 28:-1 29:-0.89876 30:-0.975172 31:-1 32:-1 33:-0.960938 34:-0.973593 35:-0.998464 36:-0.998119 37:-0.995731 38:-0.997859 39:-0.994792 40:-1 41:-1 42:-0.99292 43:-0.987138 44:-0.98005 45:-0.984496 46:-0.988201 47:-0.975535 48:-0.992395 49:-0.968553 50:-0.954373 51:-1 52:-0.977941 53:-0.986667 54:-0.990431 55:-0.988235 56:-1 57:-0.961538 58:-1 59:-1 60:-0.148222 61:-0.142642 
32768 1:-0.987866 2:-0.965067 3:-0.965448 4:0.201891 5:-0.0240403 6:-0.988425 7:0.473509 8:-0.985571 9:-0.999942 10:0.388479 11:-0.511267 12:-0.999935 13:-0.61609 14:-0.99994 15:-0.935913 16:-0.910358 17:-1 18:-1 19:-1 20:-1 21:-0.977224 22:-0.925353 23:-1 24:-1 25:-1 26:-1 27:-0.980055 28:-0.962273 29:-1 30:-1 31:-1 32:-1 33:-0.963039 34:-0.976628 35:-0.996927 36:-0.983067 37:-1 38:-0.991435 39:-0.994792 40:-0.996552 41:-0.997351 42:-0.99646 43:-0.993569 44:-0.990025 45:-0.992248 46:-0.988201 47:-1 48:-0.992395 49:-0.981132 50:-0.977186 51:-0.970037 52:-0.970588 53:-0.98 54:-0.980861 55:-0.988235 56:-0.956204 57:-0.980769 58:-0.911765 59:-0.97931 60:0.227737 61:-0.174642 
32768 1:-0.998409 2:-0.95803 3:-0.961209 4:0.20617 5:-0.021287 6:-0.985296 7:0.474472 8:-0.990669 9:-0.999993 10:0.38848 11:-0.511242 12:-0.999967 13:-0.616089 14:-0.999977 15:-0.976663 16:-0.995074 17:-1 18:-1 19:-0.993774 20:-0.983421 21:-1 22:-1 23:-1 24:-1 25:-1 26:-1 27:-1 28:-1 29:-0.986121 30:-0.964704 31:-1 32:-1 33:-0.995997 34:-0.990011 35:-0.99808 36:-0.996237 37:-0.997866 38:-1 39:-1 40:-1 41:-1 42:-0.99646 43:-1 44:-1 45:-1 46:-1 47:-0.993884 48:-1 49:-1 50:-1 51:-1 52:-1 53:-1 54:-1 55:-0.988235 56:-1 57:-1 58:-1 59:-1 60:0.00798923 61:-0.562044 
12713.42817218414 1:-0.996419 2:-0.879382 3:-0.878837 4:0.249524 5:0.00271503 6:-0.96656 7:0.487865 8:-0.998051 9:-0.999913 10:0.388482 11:-0.511042 12:-0.999907 13:-0.615657 14:-0.999919 15:-0.788682 16:-0.878475 17:-1 18:-1 19:-1 20:-1 21:-1 22:-1 23:-1 24:-1 25:-0.79031 26:-0.977245 27:-1 28:-1 29:-1 30:-1 31:-1 32:-1 33:-0.830796 34:-0.966423 35:-0.996159 36:-0.992474 37:-0.997866 38:-1 39:-0.997396 40:-1 41:-1 42:-1 43:-0.993569 44:-1 45:-1 46:-1 47:-1 48:-0.992395 49:-1 50:-1 51:-0.992509 52:-1 53:-1 54:-1 55:-0.988235 56:-0.985401 57:-1 58:-1 59:-1 60:-0.522096 61:-0.831127 
1350.962786052971 1:-0.855978 2:-0.992474 3:-0.990371 4:0.184088 5:-0.00814674 6:-0.998436 7:0.482672 8:-0.998485 9:-0.998735 10:0.388515 11:-0.511794 12:-0.996486 13:-0.61609 14:-0.997547 15:-0.859246 16:-0.956471 17:-0.869826 18:-0.942071 19:-0.918005 20:-0.932063 21:-0.912282 22:-0.916707 23:-0.954786 24:-0.920581 25:-0.966205 26:-0.926876 27:-0.840321 28:-0.885847 29:-0.926133 30:-0.869948 31:-0.945361 32:-0.883839 33:-0.958657 34:-0.902397 35:-0.990398 36:-0.988711 37:-0.974386 38:-0.982869 39:-0.958333 40:-0.910345 41:-0.931126 42:-0.968142 43:-0.948553 44:-0.860349 45:-0.813953 46:-0.775811 47:-0.639144 48:-0.612167 49:-0.893082 50:-0.627376 51:-0.632959 52:-0.698529 53:-0.506667 54:-0.435407 55:-0.388235 56:-0.708029 57:-0.807692 58:-0.941176 59:-0.986207 60:-0.236089 61:-0.0757807 
32768 1:-0.997016 2:-0.795327 3:-0.816322 4:0.0548247 5:-0.0435755 6:-0.929225 7:0.505781 8:-0.988223 9:-0.99998 10:0.38848 11:-0.511259 12:-0.999965 13:-0.616089 14:-0.99997 15:-1 16:-1 17:-1 18:-1 19:-1 20:-1 21:-1 22:-1 23:-0.947236 24:-0.966527 25:-1 26:-1 27:-1 28:-1 29:-1 30:-1 31:-1 32:-1 33:-0.903016 34:-0.933342 35:-0.999232 36:-1 37:-0.997866 38:-0.995717 39:-1 40:-1 41:-1 42:-1 43:-1 44:-1 45:-1 46:-1 47:-1 48:-1 49:-0.993711 50:-0.992395 51:-0.977528 52:-1 53:-0.993333 54:-0.980861 55:-0.976471 56:-0.985401 57:-1 58:-0.970588 59:-0.986207 60:-0.370251 61:-0.0651658 
32768 1:-0.976328 2:-0.97861 3:-0.990319 4:0.153422 5:-0.0129056 6:-0.939035 7:0.500022 8:-0.991857 9:-0.999837 10:0.388498 11:-0.51113 12:-0.999648 13:-0.616087 14:-0.999755 15:-0.971872 16:-0.905763 17:-1 18:-1 19:-0.97047 20:-0.924094 21:-1 22:-1 23:-0.874207 24:-0.943773 25:-1 26:-1 27:-0.942329 28:-0.930973 29:-1 30:-1 31:-0.94881 32:-0.935525 33:-0.960019 34:-0.990247 35:-0.996159 36:-0.992474 37:-0.997866 38:-0.993576 39:-0.984375 40:-0.986207 41:-0.952318 42:-0.971681 43:-0.935691 44:-0.970075 45:-0.968992 46:-0.9941 47:-0.969419 48:-0.984791 49:-0.943396 50:-0.969582 51:-0.977528 52:-0.992647 53:-0.986667 54:-0.971292 55:-1 56:-0.985401 57:-1 58:-1 59:-1 60:-0.231404 61:-0.321199 
493.0190528074311 1:-0.956435 2:-0.976034 3:-0.990549 4:0.152587 5:-0.00934899 6:-0.93347 7:0.491881 8:-0.9977 9:-0.999511 10:0.388431 11:-0.511526 12:-0.999399 13:-0.616052 14:-0.999489 15:-0.95364 16:-0.91888 17:-0.972131 18:-0.932403 19:-1 20:-1 21:-0.865988 22:-0.913876 23:-0.918409 24:-0.94628 25:-0.806458 26:-0.933697 27:-1 28:-1 29:-0.949525 30:-0.948383 31:-0.932972 32:-0.968839 33:-0.933641 34:-0.980494 35:-0.996927 36:-0.983067 37:-0.985059 38:-0.987152 39:-0.986979 40:-0.962069 41:-0.968212 42:-0.976991 43:-0.906752 44:-0.855362 45:-0.937984 46:-0.970501 47:-0.963303 48:-0.939163 49:-0.981132 50:-0.931559 51:-0.902622 52:-0.941176 53:-0.913333 54:-0.961722 55:-0.952941 56:-0.970803 57:-0.903846 58:-0.823529 59:-1 60:-0.202286 61:-0.26915 
7409.845734864415 1:-0.953849 2:-0.977353 3:-0.990676 4:0.152956 5:-0.0101929 6:-0.933992 7:0.494102 8:-0.996171 9:-0.999497 10:0.388487 11:-0.511123 12:-0.999043 13:-0.616137 14:-0.999316 15:-0.914933 16:-0.870695 17:-0.96812 18:-0.930356 19:-1 20:-1 21:-0.873708 22:-0.918674 23:-0.910236 24:-0.952791 25:-0.843064 26:-0.939925 27:-0.889274 28:-0.970164 29:-0.907518 30:-0.974296 31:-0.957238 32:-0.971043 33:-0.986526 34:-0.995827 35:-0.996543 36:-0.981185 37:-0.991462 38:-0.991435 39:-0.986979 40:-0.972414 41:-0.976159 42:-0.985841 43:-0.864952 44:-0.930175 45:-0.860465 46:-0.929204 47:-0.932722 48:-0.923954 49:-0.962264 50:-0.901141 51:-0.902622 52:-0.977941 53:-0.873333 54:-0.980861 55:-0.858824 56:-0.970803 57:-0.980769 58:-0.970588 59:-1 60:-0.29005 61:-0.284298 
4587.692294368818 1:-0.874478 2:-0.993646 3:-0.998304 4:0.173528 5:-0.00629214 6:-0.97732 7:0.484358 8:-0.999648 9:-0.999062 10:0.388344 11:-0.510696 12:-0.997254 13:-0.61623 14:-0.997938 15:-0.868398 16:-0.9711 17:-0.86863 18:-0.978951 19:-0.898855 20:-0.956239 21:-0.842304 22:-0.949459 23:-0.820132 24:-0.948708 25:-0.847853 26:-0.953713 27:-0.843559 28:-0.923562 29:-0.889528 30:-0.937365 31:-0.882818 32:-0.90662 33:-0.868313 34:-0.937431 35:-0.978875 36:-0.984948 37:-0.970117 38:-0.965739 39:-0.945312 40:-0.893103 41:-0.939073 42:-0.932743 43:-0.845659 44:-0.600998 45:-0.51938 46:-0.675516 47:-0.840979 48:-0.946768 49:-0.867925 50:-0.718631 51:-0.835206 52:-0.875 53:-0.873333 54:-0.913876 55:-0.929412 56:-0.89781 57:-0.865385 58:-0.970588 59:-0.965517 60:-0.102504 61:-0.176762 
32768 1:-0.978715 2:-0.993646 3:-0.995024 4:0.186763 5:-0.00609071 6:-0.991977 7:0.483421 8:-0.999992 9:-0.999968 10:0.388493 11:-0.511511 12:-0.999432 13:-0.616107 14:-0.999611 15:-0.959785 16:-0.986565 17:-0.971459 18:-0.996741 19:-0.977847 20:-0.997575 21:-0.995699 22:-0.991806 23:-0.990365 24:-0.98941 25:-0.988284 26:-0.992088 27:-0.986289 28:-0.987276 29:-0.975512 30:-0.982235 31:-0.985832 32:-0.98272 33:-0.9788 34:-0.967336 35:-0.996543 36:-0.994356 37:-0.993597 38:-0.997859 39:-1 40:-0.972414 41:-0.986755 42:-0.987611 43:-0.987138 44:-0.98005 45:-0.953488 46:-0.976401 47:-0.938838 48:-0.946768 49:-0.955975 50:-0.939163 51:-0.977528 52:-0.926471 53:-1 54:-0.980861 55:-0.988235 56:-0.970803 57:-0.980769 58:-0.911765 59:-0.97931 60:-0.236446 61:-0.307706 
6807.048780225666 1:-0.92043 2:-0.995211 3:-0.994446 4:0.177653 5:-0.00747947 6:-0.999185 7:0.483991 8:-0.999369 9:-0.999758 10:0.388486 11:-0.511036 12:-0.999521 13:-0.616084 14:-0.999612 15:-0.965482 16:-0.944181 17:-0.961021 18:-0.937317 19:-0.939416 20:-0.938926 21:-0.958016 22:-0.942458 23:-0.959713 24:-0.946831 25:-0.967388 26:-0.95071 27:-0.963216 28:-0.957568 29:-0.980787 30:-0.968418 31:-0.975981 32:-0.921795 33:-0.967644 34:-0.944397 35:-0.999616 36:-0.988711 37:-0.989328 38:-0.965739 39:-0.851562 40:-0.768966 41:-0.798675 42:-0.897345 43:-0.926045 44:-0.98005 45:-0.968992 46:-0.976401 47:-0.932722 48:-0.939163 49:-0.955975 50:-0.923954 51:-0.917603 52:-0.985294 53:-0.953333 54:-0.952153 55:-0.917647 56:-0.912409 57:-0.923077 58:-0.882353 59:-0.993103 60:-0.447226 61:-0.498861 
1369.169456173711 1:-0.760294 2:-0.996782 3:-0.996033 4:0.17699 5:-0.00555021 6:-0.998024 7:0.483135 8:-0.999437 9:-0.998101 10:0.388589 11:-0.508723 12:-0.997155 13:-0.616094 14:-0.997747 15:-0.929776 16:-0.931543 17:-0.917877 18:-0.931181 19:-0.934918 20:-0.928349 21:-0.922152 22:-0.937521 23:-0.928933 24:-0.908235 25:-0.901344 26:-0.894806 27:-0.898581 28:-0.898129 29:-0.879772 30:-0.898061 31:-0.842103 32:-0.90995 33:-0.865178 34:-0.917891 35:-0.982331 36:-0.952963 37:-0.844184 38:-0.372591 39:-0.424479 40:-0.882759 41:-0.928477 42:-0.916814 43:-0.836013 44:-0.785536 45:-0.310078 46:-0.710914 47:-0.681957 48:-0.779468 49:-0.761006 50:-0.65019 51:-0.850187 52:-0.904412 53:-0.966667 54:-0.980861 55:-0.941176 56:-0.985401 57:-1 58:-1 59:-1 60:-0.177398 61:-0.365439 
32768 1:-0.980704 2:-0.961222 3:-0.96317 4:0.159565 5:-0.00303463 6:-0.990572 7:0.482004 8:-0.999505 9:-0.999939 10:0.388478 11:-0.511241 12:-0.999535 13:-0.616033 14:-0.999675 15:-0.972529 16:-0.971541 17:-0.980855 18:-0.972488 19:-0.990718 20:-0.973529 21:-1 22:-1 23:-0.955589 24:-0.97177 25:-0.950594 26:-0.954469 27:-1 28:-1 29:-0.972679 30:-0.949952 31:-0.969601 32:-0.94816 33:-0.971667 34:-0.955647 35:-0.999232 36:-1 37:-0.995731 38:-0.997859 39:-0.989583 40:-0.996552 41:-0.994702 42:-0.99646 43:-0.983923 44:-0.975062 45:-0.976744 46:-0.964602 47:-0.932722 48:-0.893536 49:-0.974843 50:-0.946768 51:-0.925094 52:-0.941176 53:-0.966667 54:-0.961722 55:-0.964706 56:-0.985401 57:-1 58:-1 59:-0.993103 60:-0.484445 61:-0.201519 
32768 1:-0.994231 2:-0.956387 3:-0.97331 4:0.129564 5:-0.0159111 6:-0.920667 7:0.49977 8:-0.994223 9:-0.999938 10:0.388467 11:-0.511187 12:-0.999911 13:-0.616091 14:-0.999922 15:-0.911376 16:-0.962033 17:-1 18:-1 19:-1 20:-1 21:-1 22:-1 23:-0.926375 24:-0.929562 25:-1 26:-1 27:-0.938529 28:-0.926305 29:-1 30:-1 31:-0.972409 32:-0.992834 33:-1 34:-1 35:-0.999616 36:-0.992474 37:-0.997866 38:-0.991435 39:-1 40:-0.993103 41:-1 42:-0.99823 43:-1 44:-1 45:-0.992248 46:-0.988201 47:-0.975535 48:-1 49:-0.987421 50:-1 51:-1 52:-0.992647 53:-1 54:-0.971292 55:-0.988235 56:-0.941606 57:-0.980769 58:-0.970588 59:-1 60:-0.394272 61:-0.546597 
28460.6541563348 1:-0.977124 2:-0.95752 3:-0.975886 4:0.130964 5:-0.00115246 6:-0.916443 7:0.474692 8:-0.997805 9:-0.999763 10:0.388485 11:-0.51135 12:-0.999277 13:-0.616064 14:-0.999478 15:-0.973545 16:-0.990467 17:-0.982549 18:-0.992265 19:-0.876127 20:-0.915019 21:-0.938089 22:-0.941364 23:-0.949401 24:-0.957787 25:-0.977368 26:-0.993365 27:-0.93128 28:-0.902683 29:-0.938567 30:-0.931935 31:-0.953861 32:-0.913357 33:-0.920889 34:-0.976112 35:-0.997311 36:-0.998119 37:-0.995731 38:-0.991435 39:-1 40:-0.975862 41:-0.992053 42:-0.989381 43:-0.990354 44:-0.98005 45:-0.968992 46:-0.964602 47:-0.969419 48:-0.931559 49:-0.930818 50:-0.946768 51:-0.977528 52:-0.933824 53:-0.94 54:-0.961722 55:-0.964706 56:-0.927007 57:-0.903846 58:-0.941176 59:-1 60:-0.461843 61:-0.424825 
32768 1:-0.995624 2:-0.964101 3:-0.979333 4:0.137688 5:-0.00231804 6:-0.928091 7:0.476786 8:-0.998866 9:-0.999991 10:0.388478 11:-0.511274 12:-0.999946 13:-0.616089 14:-0.999962 15:-0.94087 16:-0.957155 17:-1 18:-1 19:-1 20:-1 21:-0.974329 22:-0.989437 23:-1 24:-1 25:-1 26:-1 27:-0.994159 28:-0.984879 29:-1 30:-1 31:-1 32:-1 33:-0.988626 34:-0.984206 35:-0.999616 36:-0.998119 37:-0.997866 38:-1 39:-0.992188 40:-0.996552 41:-0.997351 42:-0.99823 43:-0.996785 44:-1 45:-0.992248 46:-0.9941 47:-0.993884 48:-0.969582 49:-1 50:-1 51:-0.992509 52:-0.992647 53:-0.98 54:-0.990431 55:-0.988235 56:-1 57:-0.980769 58:-0.970588 59:-1 60:-0.407691 61:-0.270897 
32768 1:-0.995624 2:-0.80213 3:-0.810444 4:0.101159 5:0.00120988 6:-0.972748 7:0.480835 8:-0.999474 9:-0.999968 10:0.38848 11:-0.51126 12:-0.999943 13:-0.61609 14:-0.999952 15:-0.992358 16:-0.985593 17:-1 18:-1 19:-1 20:-1 21:-1 22:-1 23:-1 24:-1 25:-0.951204 26:-0.926897 27:-1 28:-1 29:-1 30:-1 31:-1 32:-1 33:-0.971268 34:-0.926644 35:-0.998848 36:-1 37:-1 38:-0.974304 39:-0.997396 40:-1 41:-0.997351 42:-0.99646 43:-1 44:-0.990025 45:-1 46:-1 47:-1 48:-0.992395 49:-0.993711 50:-1 51:-1 52:-1 53:-0.993333 54:-1 55:-0.988235 56:-0.985401 57:-1 58:-1 59:-1 60:-0.559332 61:-0.519293 
32768 1:-0.992043 2:-0.899021 3:-0.900723 4:0.141932 5:-0.0146698 6:-0.987847 7:0.486352 8:-0.998679 9:-0.999949 10:0.388484 11:-0.511193 12:-0.999914 13:-0.616091 14:-0.999929 15:-0.932223 16:-0.92642 17:-1 18:-1 19:-1 20:-1 21:-1 22:-1 23:-0.951189 24:-0.924003 25:-1 26:-1 27:-1 28:-1 29:-1 30:-1 31:-1 32:-1 33:-0.958869 34:-0.913661 35:-0.999232 36:-0.992474 37:-0.982924 38:-0.980728 39:-1 40:-0.996552 41:-0.994702 42:-0.99646 43:-0.990354 44:-0.985037 45:-1 46:-0.982301 47:-0.993884 48:-0.984791 49:-0.987421 50:-1 51:-0.985019 52:-1 53:-1 54:-1 55:-1 56:-1 57:-1 58:-1 59:-1 60:-0.428378 61:-0.495525 
21887.36319369525 1:-0.97414 2:-0.939588 3:-0.937628 4:0.160374 5:-0.0138691 6:-0.994762 7:0.485619 8:-0.997773 9:-0.999724 10:0.388494 11:-0.511424 12:-0.999365 13:-0.616157 14:-0.999534 15:-1 16:-1 17:-0.853373 18:-0.97553 19:-0.907695 20:-0.96199 21:-1 22:-1 23:-0.9124 24:-0.915403 25:-0.943898 26:-0.907119 27:-1 28:-1 29:-0.930653 30:-0.873728 31:-0.962665 32:-0.897609 33:-0.983725 34:-0.969061 35:-0.998848 36:-0.994356 37:-0.982924 38:-0.948608 39:-0.947917 40:-0.951724 41:-0.952318 42:-0.99292 43:-0.987138 44:-0.990025 45:-0.976744 46:-0.982301 47:-0.993884 48:-0.939163 49:-0.974843 50:-0.992395 51:-0.970037 52:-0.985294 53:-0.993333 54:-0.990431 55:-1 56:-0.956204 57:-0.980769 58:-0.941176 59:-1 60:-0.454696 61:-0.621509 
32768 1:-0.984285 2:-0.957996 3:-0.958519 4:0.167063 5:-0.0201374 6:-0.996563 7:0.487314 8:-0.992549 9:-0.999892 10:0.388478 11:-0.511424 12:-0.999554 13:-0.616088 14:-0.999668 15:-0.98995 16:-0.975603 17:-0.983779 18:-0.972444 19:-0.989531 20:-0.977317 21:-1 22:-1 23:-0.976196 24:-0.982672 25:-0.990642 26:-0.919596 27:-1 28:-1 29:-0.966127 30:-0.885242 31:-0.980024 32:-0.909355 33:-0.973799 34:-0.966771 35:-0.995775 36:-0.981185 37:-0.967983 38:-0.989293 39:-0.989583 40:-0.989655 41:-0.978808 42:-0.989381 43:-0.983923 44:-0.98005 45:-0.984496 46:-0.970501 47:-0.993884 48:-0.977186 49:-0.993711 50:-1 51:-1 52:-1 53:-1 54:-1 55:-1 56:-1 57:-1 58:-1 59:-1 60:-0.235526 61:-0.473851 
12071.05485734668 1:-0.962602 2:-0.993619 3:-0.995105 4:0.17279 5:-0.00859033 6:-0.991148 7:0.486773 8:-0.997922 9:-0.999952 10:0.388501 11:-0.511335 12:-0.999543 13:-0.616104 14:-0.999683 15:-0.966127 16:-0.97791 17:-0.951659 18:-0.975777 19:-0.977072 20:-0.963359 21:-0.975919 22:-0.969107 23:-1 24:-1 25:-0.9721 26:-0.968317 27:-0.973039 28:-0.969858 29:-0.989726 30:-0.975145 31:-0.986616 32:-0.978536 33:-0.980309 34:-0.963123 35:-0.996159 36:-0.983067 37:-0.995731 38:-0.982869 39:-0.945312 40:-0.868966 41:-0.965563 42:-0.961062 43:-0.954984 44:-0.9202 45:-0.821705 46:-0.9941 47:-1 48:-0.992395 49:-0.993711 50:-0.984791 51:-1 52:-0.985294 53:-0.993333 54:-0.961722 55:-0.976471 56:-1 57:-0.980769 58:-1 59:-0.993103 60:-0.630152 61:-0.674253 
32768 1:-0.996618 2:-0.801616 3:-0.818436 4:0.0670171 5:0.0113383 6:-0.941673 7:0.47402 8:-0.99739 9:-0.999989 10:0.388479 11:-0.511264 12:-0.999892 13:-0.616095 14:-0.999925 15:-0.994101 16:-0.986262 17:-1 18:-1 19:-1 20:-1 21:-0.994128 22:-0.986459 23:-1 24:-1 25:-1 26:-1 27:-0.95722 28:-0.943318 29:-1 30:-1 31:-1 32:-1 33:-0.947566 34:-0.955616 35:-0.99808 36:-1 37:-1 38:-1 39:-1 40:-1 41:-1 42:-1 43:-1 44:-1 45:-0.992248 46:-0.9941 47:-0.993884 48:-1 49:-0.981132 50:-0.992395 51:-0.992509 52:-0.985294 53:-0.986667 54:-0.980861 55:-0.988235 56:-1 57:-1 58:-1 59:-0.993103 60:-0.372801 61:-0.160019 
32768 1:-0.99443 2:-0.795103 3:-0.812774 4:0.058259 5:-0.01106 6:-0.934191 7:0.486313 8:-0.999613 9:-0.999937 10:0.3885 11:-0.511255 12:-0.999868 13:-0.616093 14:-0.999892 15:-0.952823 16:-0.909389 17:-1 18:-1 19:-1 20:-1 21:-0.979496 22:-0.89658 23:-1 24:-1 25:-1 26:-1 27:-0.943766 28:-0.906072 29:-1 30:-1 31:-1 32:-1 33:-0.968763 34:-0.982037 35:-0.998848 36:-0.984948 37:-0.997866 38:-0.993576 39:-0.989583 40:-0.996552 41:-0.997351 42:-1 43:-0.996785 44:-1 45:-1 46:-1 47:-1 48:-0.992395 49:-0.993711 50:-1 51:-1 52:-0.992647 53:-0.986667 54:-1 55:-0.988235 56:-0.970803 57:-0.980769 58:-0.970588 59:-1 60:-0.327402 61:-0.520429 
16516.10111356091 1:-0.993634 2:-0.789923 3:-0.807909 4:0.0502179 5:-0.00463722 6:-0.927131 7:0.482635 8:-0.999674 9:-0.999938 10:0.38848 11:-0.511327 12:-0.999795 13:-0.616085 14:-0.999847 15:-0.9475 16:-0.893111 17:-1 18:-1 19:-1 20:-1 21:-0.978291 22:-0.927812 23:-1 24:-1 25:-1 26:-1 27:-0.940321 28:-0.911089 29:-1 30:-1 31:-1 32:-1 33:-0.941141 34:-0.955951 35:-0.998848 36:-0.994356 37:-0.995731 38:-0.995717 39:-0.989583 40:-0.986207 41:-0.997351 42:-1 43:-1 44:-1 45:-0.992248 46:-1 47:-1 48:-1 49:-0.987421 50:-0.992395 51:-0.970037 52:-0.992647 53:-0.993333 54:-0.990431 55:-0.976471 56:-0.970803 57:-0.980769 58:-0.970588 59:-1 60:-0.347678 61:-0.46795 
32768 1:-0.998409 2:-0.721249 3:-0.776372 4:-0.058845 5:0.0313437 6:-0.788475 7:0.448614 8:-0.990337 9:-0.999994 10:0.38848 11:-0.511258 12:-0.999965 13:-0.616088 14:-0.999976 15:-1 16:-1 17:-1 18:-1 19:-1 20:-1 21:-1 22:-1 23:-0.940286 24:-0.961807 25:-1 26:-1 27:-1 28:-1 29:-1 30:-1 31:-1 32:-1 33:-0.984548 34:-0.963769 35:-0.999616 36:-1 37:-0.997866 38:-0.997859 39:-1 40:-1 41:-1 42:-1 43:-0.993569 44:-1 45:-1 46:-1 47:-1 48:-0.992395 49:-1 50:-1 51:-0.985019 52:-1 53:-0.986667 54:-1 55:-0.988235 56:-1 57:-0.980769 58:-1 59:-1 60:-0.322727 61:-0.415438 
964.6433202930527 1:-0.860951 2:-0.995641 3:-0.998577 4:0.174728 5:-0.006015 6:-0.982928 7:0.483345 8:-0.999915 9:-0.999415 10:0.388548 11:-0.511542 12:-0.998246 13:-0.616129 14:-0.998656 15:-0.919563 16:-0.946528 17:-0.91946 18:-0.939406 19:-0.921196 20:-0.932645 21:-0.929567 22:-0.943364 23:-0.934439 24:-0.925051 25:-0.927454 26:-0.936209 27:-0.912997 28:-0.94708 29:-0.947464 30:-0.938388 31:-0.961546 32:-0.924902 33:-0.943095 34:-0.935126 35:-0.995007 36:-0.992474 37:-0.993597 38:-0.978587 39:-0.973958 40:-0.951724 41:-0.954967 42:-0.989381 43:-0.945338 44:-0.900249 45:-0.821705 46:-0.840708 47:-0.785933 48:-0.711027 49:-0.779874 50:-0.634981 51:-0.730337 52:-0.558824 53:-0.6 54:-0.263158 55:-0.458824 56:0.0218978 57:-0.557692 58:-0.911765 59:-0.944828 60:-0.200392 61:0.136194 
32768 1:-0.997016 2:-0.957996 3:-0.961251 4:0.203246 5:-0.0322934 6:-0.988409 7:0.4697 8:-0.972703 9:-0.999993 10:0.388478 11:-0.511257 12:-0.999965 13:-0.616087 14:-0.999975 15:-0.99883 16:-0.996884 17:-1 18:-1 19:-1 20:-1 21:-0.98979 22:-0.985945 23:-1 24:-1 25:-1 26:-1 27:-0.983919 28:-0.925751 29:-1 30:-1 31:-1 32:-1 33:-0.962085 34:-0.976997 35:-0.996159 36:-0.998119 37:-0.997866 38:-1 39:-0.997396 40:-0.996552 41:-1 42:-0.99823 43:-1 44:-0.995012 45:-1 46:-0.9941 47:-1 48:-1 49:-1 50:-1 51:-0.985019 52:-1 53:-1 54:-1 55:-1 56:-1 57:-1 58:-1 59:-1 60:0.305554 61:-0.468049 
32768 1:-0.997414 2:-0.898128 3:-0.900393 4:0.221981 5:0.00523035 6:-0.985311 7:0.487629 8:-0.997981 9:-0.999996 10:0.388113 11:-0.511259 12:-0.999922 13:-0.616087 14:-0.999947 15:-0.993702 16:-0.98999 17:-1 18:-1 19:-0.988778 20:-0.977316 21:-1 22:-1 23:-0.993224 24:-0.974381 25:-1 26:-1 27:-1 28:-1 29:-0.993678 30:-0.989249 31:-1 32:-1 33:-0.997941 34:-0.989071 35:-0.999616 36:-1 37:-1 38:-1 39:-1 40:-1 41:-0.997351 42:-1 43:-0.996785 44:-0.995012 45:-0.992248 46:-1 47:-1 48:-0.992395 49:-0.993711 50:-1 51:-0.985019 52:-1 53:-0.986667 54:-0.990431 55:-0.988235 56:-0.970803 57:-0.961538 58:-1 59:-1 60:-0.0913915 61:0.132522 
836.4128117074538 1:-0.730456 2:-0.998591 3:-0.99896 4:0.177596 5:-0.00582505 6:-0.99538 7:0.48301 8:-0.999691 9:-0.998643 10:0.388645 11:-0.511516 12:-0.998309 13:-0.61602 14:-0.998574 15:-0.971156 16:-0.938849 17:-0.956222 18:-0.922984 19:-0.9454 20:-0.915367 21:-0.929989 22:-0.933525 23:-0.928304 24:-0.927058 25:-0.92571 26:-0.941327 27:-0.877742 28:-0.932041 29:-0.878874 30:-0.906015 31:-0.941938 32:-0.895893 33:-0.955864 34:-0.933172 35:-0.973113 36:-0.727187 37:-0.620064 38:-0.340471 39:-0.763021 40:-0.865517 41:-0.875497 42:-0.946903 43:-0.884244 44:-0.860349 45:-0.860465 46:-0.834808 47:-0.657492 48:-0.680608 49:-0.654088 50:-0.771863 51:-0.692884 52:-0.867647 53:-0.786667 54:-0.789474 55:-0.741176 56:-0.737226 57:-0.923077 58:-0.970588 59:-1 60:-0.113215 61:-0.450737 
177.0350908102362 1:-0.876666 2:-0.994786 3:-0.99425 4:0.183161 5:-0.00749977 6:-0.998495 7:0.482756 8:-0.999362 9:-0.999629 10:0.388663 11:-0.511034 12:-0.998296 13:-0.615282 14:-0.99876 15:-0.953214 16:-0.969495 17:-0.976729 18:-0.973036 19:-0.981413 20:-0.967307 21:-0.963234 22:-0.9519 23:-0.966788 24:-0.943624 25:-0.962699 26:-0.938861 27:-0.968981 28:-0.946198 29:-0.963034 30:-0.907962 31:-0.96369 32:-0.914829 33:-0.969864 34:-0.927612 35:-0.993854 36:-0.800564 37:-0.816435 38:-0.869379 39:-0.945312 40:-0.996552 41:-1 42:-1 43:-0.990354 44:-0.98005 45:-0.930233 46:-0.887906 47:-0.938838 48:-0.931559 49:-0.886792 50:-0.787072 51:-0.64794 52:-0.727941 53:-0.693333 54:-0.550239 55:-0.635294 56:-0.854015 57:-0.884615 58:-0.882353 59:-0.965517 60:0.139405 61:-0.219632 
